[[[[ 0.03571776  0.03214687  0.07172655 ...  0.07284194  0.09577377
     0.08859552]
   [ 0.05768974 -0.01663233 -0.08919944 ... -0.06146415  0.00736179
    -0.07597476]
   [ 0.00163902  0.0489168  -0.0147948  ... -0.01436543  0.0403908
    -0.06473364]]

  [[-0.06673137  0.0129365  -0.0534905  ... -0.05856451  0.09617914
     0.09804673]
   [-0.00679587 -0.0004748   0.00266423 ...  0.09842382 -0.04779441
     0.09791376]
   [ 0.09707822 -0.00297078  0.0478667  ...  0.09372307 -0.04074005
     0.02925669]]

  [[ 0.02906109 -0.00642671 -0.01365566 ...  0.01575977  0.02656563
     0.03924023]
   [ 0.0718412  -0.05816031 -0.04343908 ...  0.06403731  0.03036411
    -0.01221223]
   [ 0.08825339  0.08942278  0.099085   ...  0.07140517 -0.04126091
     0.05760537]]]


 [[[-0.09665336  0.09503774 -0.06556197 ... -0.04259565 -0.01527639
    -0.01654766]
   [ 0.04632957 -0.08905308 -0.09216326 ... -0.08907244  0.03038739
     0.01989647]
   [-0.07353644 -0.06340489 -0.09555219 ... -0.09151644  0.04501314
    -0.09512527]]

  [[ 0.09820236  0.03294675  0.08586511 ... -0.06103114  0.07786466
    -0.05355918]
   [ 0.00806345 -0.04570043 -0.00913618 ... -0.04323326 -0.03910524
     0.05596623]
   [-0.09375635 -0.01335041  0.00549459 ... -0.09025524  0.00944224
    -0.00348718]]

  [[-0.0993713  -0.0356546   0.08306962 ...  0.01342808  0.02222051
    -0.03129674]
   [-0.02531302  0.0319237   0.09537192 ...  0.03116658 -0.0739957
     0.09783964]
   [ 0.09820622  0.06486782  0.07802363 ...  0.08196749  0.04225756
     0.00054481]]]


 [[[ 0.04964837 -0.06218942 -0.070172   ... -0.03227653  0.08164659
     0.07668678]
   [-0.0391694  -0.07321373 -0.08559256 ...  0.04424711  0.03579049
    -0.09489676]
   [ 0.01124024 -0.05018426 -0.06463037 ... -0.06412702 -0.04899894
     0.02408727]]

  [[ 0.05489074 -0.02053294  0.08550407 ...  0.09449314  0.07001509
    -0.01635202]
   [-0.08640835  0.07369114  0.03831457 ... -0.09490352 -0.07584381
     0.01599897]
   [-0.01476526  0.06627372 -0.01078975 ...  0.03190276 -0.05203786
     0.07823133]]

  [[-0.01515836  0.06509197 -0.06115064 ... -0.03124128  0.04558112
     0.04494835]
   [-0.05449835 -0.08895662  0.01260493 ...  0.04285799  0.08872759
     0.02902475]
   [-0.00927374 -0.01733105  0.08259997 ... -0.03415206  0.05305345
    -0.04918708]]]]
[0. 0. 0. 0. 0. 0. 0. 0. 0. 0. 0. 0. 0. 0. 0. 0. 0. 0. 0. 0. 0. 0. 0. 0.
 0. 0. 0. 0. 0. 0. 0. 0. 0. 0. 0. 0. 0. 0. 0. 0. 0. 0. 0. 0. 0. 0. 0. 0.
 0. 0. 0. 0. 0. 0. 0. 0. 0. 0. 0. 0. 0. 0. 0. 0.]
[[[[-0.05722425 -0.04735595 -0.02194545 ... -0.06371589 -0.03020791
     0.02199581]
   [ 0.02594135  0.01536937 -0.04853253 ... -0.02176972  0.04187704
    -0.06322869]
   [ 0.05156022 -0.02073793 -0.00103985 ...  0.00212227  0.00070438
    -0.02980509]
   ...
   [ 0.06020892 -0.04975396  0.03525747 ...  0.00061207 -0.01378708
    -0.03883478]
   [ 0.03683156  0.03945243 -0.0423971  ...  0.00598491 -0.00208965
    -0.060347  ]
   [ 0.04279061 -0.03474789 -0.06596801 ...  0.06050622  0.05614109
     0.06619817]]

  [[-0.00893618  0.04979743 -0.04903964 ... -0.00366373 -0.03774429
     0.04067502]
   [-0.03948296 -0.03571948 -0.01382961 ...  0.01914972  0.01523382
    -0.05975846]
   [-0.03949504  0.0416443   0.01557492 ... -0.01656954 -0.06614856
     0.00452396]
   ...
   [-0.0271475  -0.0502632  -0.00688472 ...  0.01163196  0.05195401
     0.02265494]
   [-0.004003   -0.02579518 -0.01658322 ... -0.05410995  0.0106269
     0.00674465]
   [-0.0115663  -0.06457144 -0.04032265 ...  0.05233788 -0.06520533
    -0.02825632]]

  [[-0.0513615  -0.0029845  -0.04416364 ...  0.03229918  0.00583599
     0.05761148]
   [-0.02727693  0.00569483  0.04045367 ... -0.01681226  0.06352292
    -0.02016632]
   [ 0.03173775  0.02592784  0.02378204 ... -0.06570137  0.05803625
    -0.01829386]
   ...
   [ 0.06061581  0.05160587  0.00505067 ... -0.06374564  0.03446987
    -0.05396751]
   [-0.00089389 -0.05058071  0.06546542 ...  0.00851358  0.01356187
    -0.03793721]
   [-0.04241369  0.01614533  0.04434276 ...  0.05430992 -0.0106154
    -0.01247617]]]


 [[[-0.02185105  0.00137744 -0.04204226 ... -0.03823638  0.01358801
    -0.01482631]
   [ 0.01135972 -0.05142715 -0.03339316 ... -0.07210693 -0.05254424
    -0.05185113]
   [ 0.02851293  0.03372113 -0.00889171 ...  0.0060266   0.03524785
    -0.03740615]
   ...
   [-0.05609483 -0.05445499 -0.02063996 ...  0.00727332  0.04384001
     0.05954213]
   [-0.01865041 -0.06583864  0.02977994 ... -0.06472334 -0.03826458
     0.06004968]
   [ 0.04306846 -0.04155874  0.04876945 ... -0.00680918  0.04745874
    -0.03036434]]

  [[ 0.00829294  0.02786695  0.06334397 ...  0.0226709   0.00395163
     0.07157901]
   [-0.01690929 -0.03435348  0.02311494 ... -0.01153822  0.00155775
     0.05970311]
   [-0.04594688 -0.00149828 -0.01363834 ...  0.0188541  -0.0238244
     0.04633628]
   ...
   [ 0.0069303  -0.03223832  0.04342916 ...  0.04511643 -0.0037062
     0.00840576]
   [ 0.06375112 -0.02707978 -0.03443017 ... -0.04853596  0.06137174
    -0.01521083]
   [ 0.05396856  0.01474926 -0.01081813 ... -0.00114543 -0.01927235
    -0.03169085]]

  [[-0.01047574  0.03285262  0.03337475 ...  0.03525762  0.03603208
    -0.05470252]
   [ 0.01473957  0.03196763 -0.00520381 ... -0.03323756 -0.02238818
     0.01738999]
   [ 0.03130892  0.01985506 -0.07078145 ... -0.04604287 -0.05784516
     0.03392969]
   ...
   [ 0.06369375  0.05080742  0.02347071 ...  0.02449939 -0.0094797
    -0.04766124]
   [-0.02742359 -0.00893995 -0.01646637 ...  0.00484205 -0.05762786
    -0.05311612]
   [ 0.01685446  0.02118547 -0.06985967 ... -0.00780929 -0.02314967
    -0.04646292]]]


 [[[ 0.01069791  0.02262863  0.00285424 ... -0.05875175 -0.04927687
    -0.02358581]
   [-0.04983952  0.02348836  0.02074724 ...  0.05063123  0.03992497
     0.01132368]
   [-0.0408034   0.06401786  0.06935731 ... -0.05300184  0.0321405
    -0.05347919]
   ...
   [ 0.00058393  0.05447653 -0.01402494 ... -0.06270111  0.01466675
     0.06397857]
   [ 0.02953783  0.01748382 -0.06096315 ... -0.03222369  0.0572807
     0.00909292]
   [ 0.02997833 -0.00614683  0.06484428 ...  0.05610487  0.00718413
    -0.05681868]]

  [[-0.03906744 -0.03395515 -0.06550579 ... -0.0371823   0.01754383
     0.00306453]
   [ 0.04420551  0.00673556 -0.04362283 ... -0.02493027  0.04206395
    -0.05690311]
   [-0.01361912 -0.01153861  0.03321493 ... -0.03579729  0.02528448
     0.0691742 ]
   ...
   [-0.0157858  -0.06781283  0.03456214 ...  0.02257969  0.00519621
     0.05365212]
   [ 0.02809805  0.05619362  0.02679047 ... -0.03431172  0.06904697
    -0.04646786]
   [ 0.00993672 -0.06852301 -0.04119211 ...  0.02500054  0.05680536
     0.05526936]]

  [[-0.02129809  0.01861562 -0.05950348 ...  0.01784412 -0.05261819
     0.05110762]
   [ 0.04666943 -0.04942955 -0.0532396  ... -0.03737311 -0.03848556
    -0.01916832]
   [ 0.06377998  0.05288179  0.04508916 ... -0.06234124 -0.0429076
     0.06515905]
   ...
   [ 0.03045753 -0.02497965  0.02159927 ...  0.04702811 -0.00311236
     0.00148006]
   [-0.04314787  0.03610662 -0.06124543 ... -0.04440395 -0.00672004
     0.06346531]
   [-0.00061432  0.05382271 -0.06094616 ...  0.0615162  -0.03164482
    -0.01531571]]]]
[0. 0. 0. 0. 0. 0. 0. 0. 0. 0. 0. 0. 0. 0. 0. 0. 0. 0. 0. 0. 0. 0. 0. 0.
 0. 0. 0. 0. 0. 0. 0. 0. 0. 0. 0. 0. 0. 0. 0. 0. 0. 0. 0. 0. 0. 0. 0. 0.
 0. 0. 0. 0. 0. 0. 0. 0. 0. 0. 0. 0. 0. 0. 0. 0.]
[[[[ 3.94177996e-02  2.91103683e-02  1.37602277e-02 ...  4.05131839e-02
    -3.23183015e-02 -4.80186492e-02]
   [-4.16803658e-02  1.79568045e-02  2.13132538e-02 ... -3.69224921e-02
     3.80349196e-02 -5.18428423e-02]
   [-1.15084909e-02  2.01236419e-02  4.96032871e-02 ... -5.86752556e-02
    -5.81235811e-03 -5.64125441e-02]
   ...
   [ 3.48552503e-02 -6.13391027e-03  2.03020088e-02 ... -4.01882678e-02
     5.09977303e-02 -7.81260803e-03]
   [-2.73728892e-02  8.50253925e-03 -2.74652317e-02 ...  8.94770399e-03
     4.26237099e-02 -2.59940550e-02]
   [-4.71897051e-03  1.68938600e-02  3.59786674e-03 ...  2.01311894e-02
     1.32052563e-02 -2.79749557e-03]]

  [[-4.21340354e-02  3.51464786e-02 -3.48561332e-02 ...  9.85547528e-03
    -2.23629773e-02 -4.23561633e-02]
   [ 1.44864246e-03  4.82362695e-02 -2.24536918e-02 ...  4.38435562e-02
    -2.37442292e-02 -5.70579991e-03]
   [-2.79152766e-02  2.93722786e-02  1.13772601e-03 ... -4.80338074e-02
    -8.58153403e-03  2.36688443e-02]
   ...
   [-1.97798237e-02 -2.51127779e-02 -1.45704336e-02 ... -5.77141121e-02
    -5.37638403e-02 -1.13045312e-02]
   [ 5.55961765e-02 -3.35708335e-02  5.03191762e-02 ... -6.28125668e-03
     3.60365920e-02 -3.69330123e-03]
   [-2.71470398e-02  5.28874658e-02  1.38324536e-02 ...  4.54327427e-02
     3.96051295e-02  9.29917023e-03]]

  [[ 2.52333172e-02 -5.12723289e-02 -3.79181989e-02 ... -5.83252683e-02
     3.56270559e-02  2.73625217e-02]
   [ 3.59639525e-05 -1.93783753e-02 -1.17076933e-02 ...  5.17680459e-02
     5.45754768e-02 -3.38342562e-02]
   [ 1.65302195e-02  5.51504269e-03  2.23579742e-02 ...  4.00532298e-02
     2.36165486e-02 -6.71684369e-03]
   ...
   [-3.84170078e-02  4.69533764e-02 -1.49610341e-02 ...  4.87313047e-03
    -3.91710997e-02  4.72073220e-02]
   [-1.55197494e-02 -2.81028021e-02  4.00913768e-02 ... -1.30476393e-02
    -4.21392918e-02  2.30468251e-02]
   [-1.11321211e-02  1.18496679e-02  4.77038510e-02 ... -1.49707720e-02
    -1.50445141e-02  2.01399960e-02]]]


 [[[-3.15080732e-02 -3.61449681e-02 -1.57994330e-02 ... -8.17456469e-03
     3.02613936e-02  5.13680764e-02]
   [-2.46094875e-02 -3.29235420e-02  5.47461025e-02 ... -9.97590646e-03
     5.38636856e-02 -3.26530188e-02]
   [-2.60596499e-02  5.24803959e-02  3.78155336e-03 ... -2.32594460e-03
     5.70243932e-02  1.12994127e-02]
   ...
   [-1.17992647e-02  2.35990323e-02  2.79091932e-02 ...  5.85989244e-02
     1.32310875e-02 -3.97738554e-02]
   [ 4.55294959e-02  1.17021166e-02 -3.70169729e-02 ...  3.87859158e-02
     5.85792176e-02 -2.36598067e-02]
   [-3.09761241e-03 -2.57746540e-02  8.00255686e-04 ... -2.15386562e-02
     4.15254645e-02 -1.78862922e-02]]

  [[-1.88464262e-02 -5.82829677e-02  4.19173874e-02 ... -9.80913267e-03
    -6.76315278e-04  1.90538727e-02]
   [ 3.06618921e-02 -4.24872823e-02 -6.99370727e-03 ... -2.40832567e-03
    -3.31757814e-02 -4.87345271e-02]
   [ 3.57904993e-02 -1.18079185e-02  5.60406968e-03 ...  1.08916573e-02
     5.51342592e-03  2.03459822e-02]
   ...
   [ 1.38021074e-02 -3.05560995e-02 -3.07187587e-02 ...  4.26213779e-02
     1.06206723e-02  3.89334895e-02]
   [ 5.79967313e-02 -2.37633474e-02 -1.82305910e-02 ...  1.90565996e-02
     3.08567919e-02  4.99777310e-02]
   [ 3.56973819e-02  1.96444057e-02  4.26518507e-02 ... -1.75478272e-02
     1.71026327e-02  1.34390704e-02]]

  [[-5.18951192e-02 -1.65678002e-02 -1.87110901e-03 ...  5.07303812e-02
     2.64763832e-03  5.04069440e-02]
   [ 2.59667002e-02  1.65580250e-02 -1.62727013e-02 ...  1.50965340e-02
    -1.44765452e-02  2.44763456e-02]
   [-4.03729714e-02 -8.99136066e-05 -4.63819206e-02 ...  4.91833501e-02
     4.74963076e-02  3.64250056e-02]
   ...
   [-1.99453235e-02  1.53976344e-02  4.24862318e-02 ...  1.84715204e-02
     5.13979830e-02  5.74762002e-03]
   [-1.77806318e-02  2.15622820e-02 -5.83641231e-03 ...  2.06102468e-02
    -3.89351882e-02  5.14284559e-02]
   [-4.84945700e-02 -3.35032195e-02  3.99905480e-02 ...  5.52380793e-02
     4.02964316e-02 -2.74640508e-02]]]


 [[[ 3.70714702e-02 -4.72706705e-02  4.27655913e-02 ...  4.25716303e-02
    -3.67081463e-02 -5.64655960e-02]
   [-9.60639119e-03  4.57359888e-02 -2.16975361e-02 ... -4.29163501e-02
    -2.41342001e-02  5.18314801e-02]
   [ 4.67462353e-02 -5.85979149e-02  1.14001743e-02 ... -3.93578224e-02
    -3.36854458e-02  2.14825682e-02]
   ...
   [-2.39018016e-02  1.85242556e-02  2.34392695e-02 ... -9.71220806e-03
     4.20408361e-02 -5.75935580e-02]
   [ 3.24443094e-02  5.06651513e-02 -5.58634698e-02 ...  5.64515702e-02
     3.11793126e-02  1.12685747e-02]
   [-4.84968349e-02  1.90561675e-02 -3.11029982e-02 ... -5.51936850e-02
     4.61272411e-02  5.78691438e-03]]

  [[-3.01676318e-02  1.13891028e-02  1.86111890e-02 ... -5.69420494e-02
     3.97911482e-02 -5.40630259e-02]
   [-1.81947947e-02  1.47429854e-03  7.15349987e-03 ...  2.01193877e-02
     4.01857980e-02 -6.00144267e-04]
   [-5.61920628e-02 -6.41514361e-03 -4.52690944e-03 ...  1.39917247e-02
     2.68078707e-02  3.93645279e-02]
   ...
   [ 3.56350504e-02  2.82986276e-02 -3.85600403e-02 ...  1.95203014e-02
     3.23136263e-02 -1.49249844e-02]
   [ 5.78232482e-03 -1.66475400e-02  3.99171151e-02 ...  2.33187564e-02
    -1.98692828e-03 -5.27156331e-02]
   [ 5.01741096e-03  1.03435107e-02 -1.09329633e-02 ... -5.77384979e-02
    -5.40925860e-02  1.21595375e-02]]

  [[ 2.58749910e-02 -3.03057618e-02 -3.35076451e-02 ... -1.07783675e-02
    -4.90467809e-02 -5.00464328e-02]
   [-1.85879394e-02 -5.03704846e-02  3.05005535e-03 ... -4.20216843e-03
     2.03695036e-02 -3.85434777e-02]
   [ 4.51807193e-02 -5.63851371e-02  5.47250174e-02 ...  1.09780468e-02
     9.69192013e-03 -2.65713260e-02]
   ...
   [-1.93599425e-02 -9.40196589e-03 -4.65649888e-02 ...  2.98218913e-02
    -3.41280028e-02  3.90537791e-02]
   [ 2.17132680e-02 -5.43182418e-02 -5.56360595e-02 ... -9.92354751e-03
     4.42881770e-02  5.20049147e-02]
   [-5.57684153e-03  1.63202845e-02 -4.75082248e-02 ... -1.59585662e-02
     5.68971522e-02 -4.03260067e-02]]]]
[0. 0. 0. 0. 0. 0. 0. 0. 0. 0. 0. 0. 0. 0. 0. 0. 0. 0. 0. 0. 0. 0. 0. 0.
 0. 0. 0. 0. 0. 0. 0. 0. 0. 0. 0. 0. 0. 0. 0. 0. 0. 0. 0. 0. 0. 0. 0. 0.
 0. 0. 0. 0. 0. 0. 0. 0. 0. 0. 0. 0. 0. 0. 0. 0. 0. 0. 0. 0. 0. 0. 0. 0.
 0. 0. 0. 0. 0. 0. 0. 0. 0. 0. 0. 0. 0. 0. 0. 0. 0. 0. 0. 0. 0. 0. 0. 0.
 0. 0. 0. 0. 0. 0. 0. 0. 0. 0. 0. 0. 0. 0. 0. 0. 0. 0. 0. 0. 0. 0. 0. 0.
 0. 0. 0. 0. 0. 0. 0. 0.]
[[[[-4.51164655e-02 -3.09777800e-02 -5.06349020e-02 ... -3.81446630e-02
    -3.79691720e-02 -3.04724220e-02]
   [ 4.18931767e-02 -3.15498486e-02 -1.49122961e-02 ... -3.05176955e-02
    -3.33483964e-02  2.27243677e-02]
   [ 2.54205242e-02 -4.36900258e-02  1.86003447e-02 ... -7.86451250e-03
     1.06652491e-02  2.12421715e-02]
   ...
   [-1.74388774e-02 -1.01376623e-02 -2.53315587e-02 ...  2.58054212e-03
     4.11749408e-02  4.48581949e-03]
   [-2.32832246e-02 -1.31063238e-02  1.30177662e-02 ...  1.72283128e-02
    -1.76252872e-02  3.45488414e-02]
   [-1.17909275e-02 -3.96023132e-02 -4.88902032e-02 ... -1.19534880e-02
    -1.43112093e-02 -9.38218087e-03]]

  [[ 2.30564699e-02 -9.15805623e-03 -5.78781962e-03 ...  1.81284547e-03
     1.90494433e-02 -5.75572252e-03]
   [ 1.26862824e-02 -1.87703855e-02  1.17704645e-03 ... -2.56351307e-02
     4.84331697e-02 -9.40484554e-03]
   [-4.39044870e-02  6.58237934e-03  4.57811803e-02 ...  2.85409912e-02
    -4.24924158e-02 -5.45934215e-03]
   ...
   [-4.41871211e-02 -1.83209442e-02 -4.56783623e-02 ...  3.64319533e-02
    -3.67577747e-02 -4.96772192e-02]
   [-2.33288873e-02 -3.30531597e-02 -9.17159766e-03 ...  1.44810975e-02
     5.03596887e-02  1.78066567e-02]
   [ 1.64767206e-02 -4.65581268e-02 -4.10855971e-02 ... -2.59704217e-02
     2.46647820e-02  3.96449789e-02]]

  [[ 4.85263094e-02  4.07451615e-02  4.15250883e-02 ...  1.36336312e-02
    -4.74730171e-02 -4.59903404e-02]
   [ 4.56535071e-02  4.34840396e-02 -4.62874174e-02 ...  5.35132363e-03
     1.19523704e-03 -4.77626473e-02]
   [ 8.94591585e-03  4.34288681e-02  4.49678823e-02 ...  2.57827118e-02
    -2.13964675e-02  3.75329927e-02]
   ...
   [-3.14463228e-02 -4.65977937e-02  3.37722376e-02 ...  1.08920150e-02
     4.15304378e-02  1.10787973e-02]
   [ 2.18470618e-02  2.66924873e-03  4.22876701e-02 ... -1.90557912e-03
     2.33167186e-02 -2.49693654e-02]
   [ 3.91509756e-02 -2.62921583e-02 -1.18896626e-02 ...  4.20696959e-02
    -1.26721188e-02 -4.32869270e-02]]]


 [[[-4.45496403e-02 -3.82198170e-02 -3.46163064e-02 ...  4.75970432e-02
     4.98578250e-02 -2.58410163e-02]
   [-8.97907093e-03  3.79170626e-02  2.32456326e-02 ...  4.44361717e-02
     2.61528268e-02  2.52824873e-02]
   [ 4.85535115e-02  4.65355366e-02 -1.13392025e-02 ... -4.12413850e-03
    -1.29514672e-02 -2.38310080e-02]
   ...
   [ 4.94938567e-02 -1.87486298e-02 -3.29818018e-02 ... -4.28778082e-02
     2.85881236e-02 -1.74209923e-02]
   [ 9.19803604e-03 -2.75682565e-02 -1.70470774e-03 ... -4.29545939e-02
    -2.93008611e-02 -1.97748840e-02]
   [ 4.32330295e-02  3.42726335e-02 -3.98784131e-02 ... -2.63584033e-03
     4.66334522e-02  3.95195559e-03]]

  [[-1.28876530e-02  9.13199410e-03 -8.61760229e-04 ... -1.27523206e-02
     3.11743692e-02  4.64825109e-02]
   [ 4.71784025e-02  3.49954739e-02  6.38854131e-03 ... -6.65234029e-03
    -4.07824665e-03  1.16332844e-02]
   [-1.78462081e-02 -4.56146821e-02  2.46599913e-02 ... -2.85839848e-02
    -5.58236986e-03 -2.04782188e-03]
   ...
   [ 2.34528631e-03  1.96664780e-02  2.50169486e-02 ...  4.18740734e-02
    -2.61550024e-02  4.94698808e-03]
   [ 4.57424968e-02  4.90117744e-02 -2.35264879e-02 ... -1.38855912e-02
    -2.43047699e-02 -2.47127451e-02]
   [ 2.00222582e-02  4.30814326e-02  6.13699108e-03 ... -1.79865286e-02
    -5.03885746e-03 -1.80068351e-02]]

  [[-2.93384697e-02  4.76759747e-02  4.09733132e-02 ...  4.66057584e-02
     1.78530142e-02  2.70622596e-03]
   [ 2.66536102e-02  2.38408893e-02  2.43982300e-03 ...  4.06674892e-02
    -3.73611748e-02 -2.99149305e-02]
   [-3.59347202e-02 -1.10220388e-02 -3.90555523e-02 ...  4.41901162e-02
    -4.50858288e-02  9.55937803e-03]
   ...
   [ 4.07429561e-02 -2.79469211e-02 -4.68820445e-02 ... -1.25155561e-02
     2.92059034e-03  2.63384506e-02]
   [-1.40542611e-02  4.36495617e-03 -1.37546435e-02 ... -3.84580195e-02
     3.32621336e-02  9.94615257e-05]
   [ 1.29331946e-02  3.91066521e-02  5.44043258e-03 ... -4.69518825e-02
    -3.43584716e-02 -5.07989340e-02]]]


 [[[ 9.39411670e-03 -4.89672162e-02  3.42115685e-02 ...  4.07273322e-02
     8.82505253e-03  5.29720634e-03]
   [ 4.54037115e-02  8.04441050e-03 -3.32950465e-02 ...  1.82774961e-02
     1.62500143e-03 -4.78597768e-02]
   [-2.69406587e-02  1.64074078e-02  2.79257149e-02 ... -1.89050101e-02
    -1.44883208e-02 -1.75642446e-02]
   ...
   [ 1.47825256e-02 -3.56922969e-02  3.26338783e-03 ... -3.21901850e-02
     2.72815078e-02  4.05080989e-03]
   [-5.92042506e-03  4.44639996e-02 -1.17869377e-02 ...  5.09103462e-02
     3.55192125e-02 -1.50781646e-02]
   [ 1.42891631e-02 -2.82823462e-02 -2.15746369e-02 ...  4.51806188e-02
    -4.76144440e-02  1.90283582e-02]]

  [[ 2.39157006e-02  4.70392108e-02  8.51285458e-03 ...  4.81072366e-02
    -3.89441885e-02  2.72268206e-02]
   [-3.87926027e-02  1.45776719e-02 -4.44583781e-02 ...  3.58877704e-03
    -3.38170975e-02  4.45240214e-02]
   [ 1.49361342e-02  3.98795679e-03 -3.72512713e-02 ...  3.29080075e-02
     2.67451182e-02 -3.87835875e-03]
   ...
   [-2.85057276e-02  6.27012178e-03 -3.50929387e-02 ...  6.48997724e-04
    -2.61961278e-02 -3.19179408e-02]
   [ 2.64078677e-02 -2.29967348e-02  3.10309008e-02 ... -5.69260120e-03
    -3.45665701e-02 -9.34939086e-03]
   [-4.36007828e-02  1.79690868e-03  9.05279070e-03 ... -3.67826223e-02
     3.35927680e-02 -3.11319456e-02]]

  [[-9.13604721e-03  4.29860875e-03  2.08274871e-02 ...  4.43138555e-03
    -2.97223665e-02  2.26567686e-02]
   [-9.03442502e-04  4.27243710e-02 -1.66367628e-02 ... -2.30271369e-03
     3.09712589e-02  4.39056158e-02]
   [-3.34775820e-02 -2.37514134e-02  1.29139349e-02 ... -3.91951874e-02
     4.93657291e-02  8.12961534e-03]
   ...
   [ 3.43603194e-02  2.12390199e-02  3.33440527e-02 ... -2.30949316e-02
     4.05028686e-02 -2.46601366e-02]
   [-3.68022956e-02  3.58741805e-02 -4.17139232e-02 ...  2.54695043e-02
     1.84073746e-02  3.63838822e-02]
   [ 3.79818752e-02  2.38668174e-02  3.14480364e-02 ... -2.72469595e-03
    -4.05247360e-02  3.43766585e-02]]]]
[0. 0. 0. 0. 0. 0. 0. 0. 0. 0. 0. 0. 0. 0. 0. 0. 0. 0. 0. 0. 0. 0. 0. 0.
 0. 0. 0. 0. 0. 0. 0. 0. 0. 0. 0. 0. 0. 0. 0. 0. 0. 0. 0. 0. 0. 0. 0. 0.
 0. 0. 0. 0. 0. 0. 0. 0. 0. 0. 0. 0. 0. 0. 0. 0. 0. 0. 0. 0. 0. 0. 0. 0.
 0. 0. 0. 0. 0. 0. 0. 0. 0. 0. 0. 0. 0. 0. 0. 0. 0. 0. 0. 0. 0. 0. 0. 0.
 0. 0. 0. 0. 0. 0. 0. 0. 0. 0. 0. 0. 0. 0. 0. 0. 0. 0. 0. 0. 0. 0. 0. 0.
 0. 0. 0. 0. 0. 0. 0. 0.]
[[[[ 0.0400896   0.03691362 -0.02503585 ... -0.00635508  0.00480513
    -0.01093171]
   [-0.01311499  0.01631597 -0.02980982 ... -0.03714551 -0.02523375
    -0.00981566]
   [ 0.0089442  -0.0058166  -0.02812591 ... -0.03219077 -0.03111297
     0.02088938]
   ...
   [-0.0072106   0.00511241  0.02585474 ... -0.02945502  0.03834162
    -0.01376083]
   [-0.03235835 -0.01427948  0.00186976 ... -0.02798083  0.01082054
    -0.01266998]
   [ 0.01467402 -0.01163947  0.02516038 ... -0.00071151  0.02542872
    -0.0382188 ]]

  [[ 0.0086325   0.01460442  0.01086001 ... -0.02994658  0.02466348
    -0.02727725]
   [-0.0155912   0.0024018  -0.00948646 ... -0.0347246  -0.02235041
    -0.03684498]
   [ 0.00427262  0.00912923 -0.02108099 ...  0.00874176 -0.02018415
     0.04073845]
   ...
   [ 0.00019626 -0.01538779  0.01688462 ...  0.01561176  0.01867811
    -0.00054774]
   [-0.03458887 -0.03831875 -0.0049951  ...  0.0219871  -0.03703749
    -0.03982379]
   [-0.04092898  0.03527898 -0.02706137 ... -0.02170038  0.0099364
    -0.01000351]]

  [[ 0.00572997  0.01603128  0.03872724 ... -0.00647468 -0.00814933
    -0.02778358]
   [-0.03561301 -0.03425721 -0.00470856 ... -0.00248752 -0.03380252
    -0.0016677 ]
   [ 0.02111671 -0.02287059 -0.01868904 ... -0.0119965  -0.02141121
     0.04050468]
   ...
   [ 0.01591317 -0.02918916  0.0243477  ... -0.01926098  0.01859999
    -0.03767014]
   [-0.00859702  0.02251287  0.00941923 ...  0.03745322 -0.02221307
     0.03886603]
   [-0.01629866 -0.0312361  -0.00822697 ...  0.03047482  0.03661675
    -0.02087763]]]


 [[[-0.024733    0.01051266  0.01065176 ...  0.03822315  0.03169985
    -0.02747839]
   [-0.03257967 -0.03254382  0.02631385 ...  0.03356828 -0.00299675
    -0.04136816]
   [-0.02089506 -0.01273358 -0.03886085 ...  0.00718998  0.03607212
    -0.02982484]
   ...
   [ 0.0026054   0.00855504  0.02813574 ...  0.00874395  0.01109716
    -0.02881676]
   [-0.01137544 -0.02072927  0.02268441 ... -0.02431787  0.01798879
     0.01948699]
   [ 0.00093815  0.03439412  0.00442931 ...  0.01592481  0.00468455
    -0.0350106 ]]

  [[ 0.01825225  0.02102618  0.03616233 ... -0.02882003  0.03491964
     0.01410188]
   [-0.03805336 -0.02278514  0.02272673 ...  0.00716422 -0.02840191
    -0.01254369]
   [-0.01738395 -0.01776229 -0.0084115  ... -0.0384545  -0.03922005
    -0.01983437]
   ...
   [ 0.03293194  0.01320736 -0.03365923 ...  0.03173054 -0.00137578
    -0.02341705]
   [-0.0315658  -0.02361329 -0.03466632 ... -0.02088536  0.01207872
     0.03456635]
   [ 0.02723146 -0.0050526  -0.00219114 ...  0.01857883  0.01480178
    -0.0111736 ]]

  [[-0.0051036  -0.03732014  0.03654813 ... -0.02411775  0.02492217
     0.00921546]
   [ 0.0106027  -0.0413285  -0.02414809 ...  0.01588164 -0.02060288
     0.00377046]
   [-0.03145706 -0.02425924 -0.01730754 ...  0.02585001 -0.01185971
     0.00914307]
   ...
   [ 0.0334124   0.01491581 -0.00450577 ... -0.01706701 -0.03485858
     0.02570695]
   [-0.01387232 -0.03488713 -0.03717298 ...  0.03572292  0.01108158
     0.02018906]
   [ 0.00599389 -0.01066675 -0.00300254 ...  0.04033493 -0.03815774
    -0.025526  ]]]


 [[[-0.01206122 -0.00888807 -0.03498098 ... -0.00504153  0.01104151
     0.00242629]
   [ 0.00716333 -0.0281814   0.01376502 ...  0.00549154  0.03729342
    -0.03622375]
   [ 0.02734039  0.0163054   0.01987149 ...  0.03244199 -0.03812995
    -0.01570771]
   ...
   [-0.03529804  0.02685668  0.03061843 ...  0.01570483 -0.00561659
     0.03586384]
   [-0.03063272 -0.00912759 -0.00082135 ... -0.00033132 -0.02293172
     0.00757915]
   [-0.02878015  0.03616093 -0.02054815 ... -0.01067385 -0.00123815
     0.04124193]]

  [[-0.01862367 -0.02713245  0.0278202  ...  0.00716382 -0.0411262
     0.00719557]
   [ 0.01456916 -0.0114991  -0.00291745 ...  0.03854795  0.02014807
     0.00591452]
   [-0.02142259  0.00613731  0.02249569 ... -0.01013196 -0.03725172
     0.01038611]
   ...
   [ 0.02682413 -0.03933644  0.04044235 ... -0.023004   -0.01775981
     0.00637203]
   [-0.02184064  0.00354143  0.00567605 ...  0.0174678   0.03386531
    -0.02403544]
   [-0.03539636  0.00715778 -0.03751869 ...  0.03240947 -0.02375956
     0.00506958]]

  [[ 0.02852157 -0.0087005   0.02835998 ...  0.00526657 -0.03074744
     0.00693464]
   [ 0.04071988  0.03549926 -0.01601214 ... -0.03892791  0.04153607
    -0.00864841]
   [ 0.01775774  0.00874415  0.01889721 ... -0.02794567  0.00085339
     0.04150781]
   ...
   [ 0.01527758 -0.00500502  0.02406121 ...  0.02277002 -0.03042207
    -0.00431843]
   [-0.03006889 -0.01890451  0.00690265 ...  0.03938574  0.0147811
    -0.0112594 ]
   [ 0.007215   -0.01865238  0.0257502  ...  0.02637337 -0.03615225
    -0.03734016]]]]
[0. 0. 0. 0. 0. 0. 0. 0. 0. 0. 0. 0. 0. 0. 0. 0. 0. 0. 0. 0. 0. 0. 0. 0.
 0. 0. 0. 0. 0. 0. 0. 0. 0. 0. 0. 0. 0. 0. 0. 0. 0. 0. 0. 0. 0. 0. 0. 0.
 0. 0. 0. 0. 0. 0. 0. 0. 0. 0. 0. 0. 0. 0. 0. 0. 0. 0. 0. 0. 0. 0. 0. 0.
 0. 0. 0. 0. 0. 0. 0. 0. 0. 0. 0. 0. 0. 0. 0. 0. 0. 0. 0. 0. 0. 0. 0. 0.
 0. 0. 0. 0. 0. 0. 0. 0. 0. 0. 0. 0. 0. 0. 0. 0. 0. 0. 0. 0. 0. 0. 0. 0.
 0. 0. 0. 0. 0. 0. 0. 0. 0. 0. 0. 0. 0. 0. 0. 0. 0. 0. 0. 0. 0. 0. 0. 0.
 0. 0. 0. 0. 0. 0. 0. 0. 0. 0. 0. 0. 0. 0. 0. 0. 0. 0. 0. 0. 0. 0. 0. 0.
 0. 0. 0. 0. 0. 0. 0. 0. 0. 0. 0. 0. 0. 0. 0. 0. 0. 0. 0. 0. 0. 0. 0. 0.
 0. 0. 0. 0. 0. 0. 0. 0. 0. 0. 0. 0. 0. 0. 0. 0. 0. 0. 0. 0. 0. 0. 0. 0.
 0. 0. 0. 0. 0. 0. 0. 0. 0. 0. 0. 0. 0. 0. 0. 0. 0. 0. 0. 0. 0. 0. 0. 0.
 0. 0. 0. 0. 0. 0. 0. 0. 0. 0. 0. 0. 0. 0. 0. 0.]
[[[[ 0.01830645 -0.0119142  -0.01676867 ... -0.02797206 -0.01219388
    -0.01024262]
   [-0.01587515  0.03223845 -0.00288511 ... -0.00184825 -0.00949774
     0.02616695]
   [ 0.01200827  0.0125519   0.01004968 ...  0.0155695   0.02256243
     0.02585682]
   ...
   [ 0.01491472 -0.03327952  0.01870178 ... -0.01072279 -0.00926092
     0.00842978]
   [ 0.01974462 -0.00933381  0.02062829 ...  0.01324248 -0.02857411
    -0.03025201]
   [ 0.00173721  0.00993783 -0.02322588 ...  0.00223865  0.01821014
    -0.01502102]]

  [[-0.03001592  0.012173    0.01289854 ... -0.01804454 -0.0263081
     0.02837792]
   [-0.00467924 -0.03559094 -0.02064063 ... -0.01861186 -0.03026605
    -0.00584826]
   [-0.00133274 -0.02901476  0.03156175 ... -0.03178323 -0.01139572
     0.02514217]
   ...
   [ 0.02215806 -0.02789848  0.01629783 ...  0.01198982  0.0089979
    -0.01139371]
   [-0.0280995   0.00347238 -0.00105573 ... -0.03327635  0.00593854
     0.00574628]
   [ 0.01899642  0.02348263 -0.03374093 ... -0.02181845 -0.02139358
    -0.01819213]]

  [[-0.00917823 -0.02311606  0.01891151 ...  0.01045723 -0.01866862
    -0.01767677]
   [ 0.02868003 -0.01220534 -0.0338036  ... -0.01781422  0.00382431
     0.02531518]
   [ 0.00507653 -0.00193932  0.03483975 ... -0.027028   -0.00461461
    -0.01653713]
   ...
   [-0.00331826  0.00358054 -0.01844776 ...  0.00462309  0.03273077
    -0.01531135]
   [-0.01883981  0.01480188 -0.01459448 ...  0.00092268  0.02654962
     0.00104376]
   [ 0.02848479  0.03555357 -0.01071965 ...  0.02572952  0.00441945
    -0.00594261]]]


 [[[-0.02890996  0.02148692 -0.02591539 ... -0.02224607  0.01614697
    -0.00118918]
   [ 0.00154148 -0.01393888 -0.01158534 ...  0.01381221  0.01773614
    -0.01591374]
   [-0.00772482 -0.00471211 -0.01508149 ... -0.03371708 -0.00544299
    -0.00257516]
   ...
   [-0.01923246 -0.00063135 -0.0132263  ... -0.02260784  0.01013204
     0.01673293]
   [-0.00065048  0.03174055 -0.00776147 ...  0.0149175   0.01426149
    -0.03413826]
   [ 0.02298483  0.01464428  0.00106944 ...  0.01099351  0.02610144
     0.00631881]]

  [[-0.01712816  0.01066637  0.00157421 ...  0.01993869  0.02951449
    -0.01968562]
   [-0.02764297 -0.01478767  0.01144177 ... -0.00272763  0.01431737
     0.01723047]
   [-0.02991072 -0.02821245 -0.0071485  ...  0.0301165  -0.01753197
    -0.00173353]
   ...
   [ 0.01411764 -0.00840896 -0.02983256 ... -0.02119761  0.01364838
    -0.02185947]
   [ 0.01796005 -0.00996374 -0.00252005 ...  0.03154171  0.03534939
     0.00348657]
   [ 0.02574415  0.0136007   0.03232042 ...  0.01613648 -0.03569393
    -0.01410342]]

  [[-0.01248352 -0.01423833  0.00699756 ... -0.02977308  0.03438235
     0.02757001]
   [ 0.02129022  0.01736242  0.01957513 ... -0.02267749 -0.02159701
    -0.03360191]
   [ 0.02413346 -0.01861208  0.00143887 ...  0.00299069 -0.02038754
    -0.0062757 ]
   ...
   [ 0.02805179  0.01007256  0.01124715 ...  0.01400635  0.01342756
     0.00259821]
   [-0.01694421  0.01230723  0.03548829 ... -0.00842195 -0.01680176
    -0.01984987]
   [ 0.02678245  0.03176161 -0.03104016 ...  0.0179634  -0.01557476
    -0.00243861]]]


 [[[-0.02343947 -0.00304864 -0.01616082 ...  0.02329679 -0.01772403
    -0.01693374]
   [ 0.02830144 -0.0092593   0.00909826 ... -0.00038513  0.02050829
    -0.0309933 ]
   [-0.00118531  0.01160403 -0.01972183 ...  0.01487899  0.01318303
     0.00340541]
   ...
   [ 0.02645363  0.02932858  0.01101952 ... -0.03140568 -0.02053739
    -0.00275502]
   [ 0.02900985  0.01125029  0.02628511 ... -0.00388949  0.03180997
     0.0212455 ]
   [-0.00303349 -0.00858945  0.0330705  ...  0.01734049 -0.03281077
    -0.01617621]]

  [[ 0.02572798 -0.0235052  -0.0018121  ...  0.01672554 -0.01083174
    -0.03424098]
   [ 0.03488998 -0.03394512  0.02221717 ... -0.02092148 -0.01580746
    -0.02709459]
   [-0.01723997 -0.00931383 -0.01377183 ...  0.02186605 -0.03063628
     0.01355053]
   ...
   [ 0.00498168 -0.03540732  0.02428016 ...  0.03333137 -0.03330836
     0.01213647]
   [ 0.01597397  0.02582734 -0.02684765 ... -0.02966192 -0.00052257
     0.016589  ]
   [-0.01010539 -0.02980133 -0.0300282  ...  0.02539143 -0.0024234
    -0.02656397]]

  [[-0.02392254  0.03023837 -0.02105893 ... -0.00444683 -0.00110475
     0.00198162]
   [ 0.02035126  0.0347179  -0.0294942  ...  0.0038757  -0.0174502
     0.03155531]
   [ 0.03040041 -0.01588462  0.01408329 ...  0.01649458 -0.02053715
    -0.01715975]
   ...
   [-0.03473002 -0.00735525  0.01986075 ... -0.00925533  0.02211168
    -0.0104942 ]
   [ 0.00499233 -0.03127401  0.00026415 ...  0.01992803 -0.00938721
     0.00607747]
   [-0.00654324  0.03587898 -0.03250525 ... -0.03509805  0.02080035
    -0.03229653]]]]
[0. 0. 0. 0. 0. 0. 0. 0. 0. 0. 0. 0. 0. 0. 0. 0. 0. 0. 0. 0. 0. 0. 0. 0.
 0. 0. 0. 0. 0. 0. 0. 0. 0. 0. 0. 0. 0. 0. 0. 0. 0. 0. 0. 0. 0. 0. 0. 0.
 0. 0. 0. 0. 0. 0. 0. 0. 0. 0. 0. 0. 0. 0. 0. 0. 0. 0. 0. 0. 0. 0. 0. 0.
 0. 0. 0. 0. 0. 0. 0. 0. 0. 0. 0. 0. 0. 0. 0. 0. 0. 0. 0. 0. 0. 0. 0. 0.
 0. 0. 0. 0. 0. 0. 0. 0. 0. 0. 0. 0. 0. 0. 0. 0. 0. 0. 0. 0. 0. 0. 0. 0.
 0. 0. 0. 0. 0. 0. 0. 0. 0. 0. 0. 0. 0. 0. 0. 0. 0. 0. 0. 0. 0. 0. 0. 0.
 0. 0. 0. 0. 0. 0. 0. 0. 0. 0. 0. 0. 0. 0. 0. 0. 0. 0. 0. 0. 0. 0. 0. 0.
 0. 0. 0. 0. 0. 0. 0. 0. 0. 0. 0. 0. 0. 0. 0. 0. 0. 0. 0. 0. 0. 0. 0. 0.
 0. 0. 0. 0. 0. 0. 0. 0. 0. 0. 0. 0. 0. 0. 0. 0. 0. 0. 0. 0. 0. 0. 0. 0.
 0. 0. 0. 0. 0. 0. 0. 0. 0. 0. 0. 0. 0. 0. 0. 0. 0. 0. 0. 0. 0. 0. 0. 0.
 0. 0. 0. 0. 0. 0. 0. 0. 0. 0. 0. 0. 0. 0. 0. 0.]
[[[[ 0.00341808 -0.00130393 -0.01738582 ...  0.01301435  0.01597321
     0.02139251]
   [ 0.02177104 -0.02908774  0.01702311 ... -0.0352001  -0.00515158
    -0.03575473]
   [-0.00096649  0.01208361  0.03471845 ... -0.00525451 -0.01873541
     0.03113192]
   ...
   [-0.03535481  0.01044632 -0.02149952 ... -0.03412738  0.00274404
     0.02955173]
   [ 0.03168941  0.01581512 -0.00865252 ...  0.03585571  0.0199654
    -0.02473917]
   [ 0.02370251 -0.00060209  0.02097733 ...  0.01166911  0.00141221
     0.02261573]]

  [[ 0.02611075  0.01404136 -0.00836891 ...  0.02518726  0.00553848
     0.03384113]
   [-0.00650327 -0.00481334 -0.02768709 ... -0.03142524  0.02294075
     0.003727  ]
   [ 0.0237335   0.01425336 -0.03328989 ...  0.01028881  0.03191157
    -0.03144453]
   ...
   [-0.0148315  -0.01566457  0.0302398  ...  0.03570808  0.0257749
    -0.01685612]
   [ 0.02081593 -0.00718631 -0.01803078 ... -0.00768551  0.02994801
    -0.01994359]
   [ 0.01705928 -0.03488192  0.01695276 ...  0.01487539 -0.02328116
    -0.01119729]]

  [[-0.00896291  0.01903179  0.02770067 ...  0.02314892  0.03535858
    -0.02170936]
   [ 0.021991    0.03393766  0.01514256 ... -0.02026435 -0.00052247
     0.02937079]
   [-0.03505541 -0.00774694 -0.0152949  ... -0.02278368 -0.02368659
     0.02583618]
   ...
   [ 0.03007352  0.01341459  0.00693577 ...  0.01291217 -0.00206571
     0.02057777]
   [ 0.01348108  0.00384348  0.0328591  ... -0.03358484  0.01111919
    -0.01236403]
   [ 0.02791328 -0.02279289 -0.01652321 ... -0.03500062  0.01055377
     0.03283593]]]


 [[[ 0.00063497  0.00430235 -0.02322126 ...  0.01049818  0.02702638
     0.01752167]
   [-0.00132948 -0.0281851  -0.01949447 ...  0.03341339 -0.01072129
     0.03558581]
   [ 0.03497171  0.02163055 -0.008436   ...  0.01691335 -0.03120554
    -0.00367155]
   ...
   [ 0.01644501  0.01634059 -0.03117568 ...  0.01364325  0.01268416
    -0.02362135]
   [ 0.00434947 -0.01435794 -0.00833741 ... -0.01773135 -0.02615622
     0.02647433]
   [-0.02284716 -0.01993292  0.0330469  ...  0.0106237  -0.03452896
     0.02251065]]

  [[ 0.00517711  0.013842   -0.01449872 ... -0.02864606 -0.02591621
     0.03007197]
   [-0.01150278 -0.01900127 -0.01921145 ... -0.00482496 -0.0333884
    -0.00810618]
   [ 0.01226189  0.02513845  0.01960281 ...  0.00109636 -0.03319574
     0.0286548 ]
   ...
   [-0.03522513  0.00948114 -0.00342569 ... -0.022913    0.00912845
    -0.02823872]
   [-0.00611104 -0.01586094  0.00889354 ... -0.0098553   0.00958044
    -0.01122255]
   [ 0.03373976 -0.01127812 -0.00322783 ... -0.02816758 -0.02777803
    -0.01989527]]

  [[ 0.01284474  0.01852763  0.01029088 ... -0.00892224 -0.02663871
     0.03345087]
   [-0.01325248 -0.00398382  0.00887041 ... -0.01864075 -0.02572857
    -0.00444417]
   [ 0.03355922 -0.02493973  0.01325355 ...  0.01098594 -0.01858405
     0.03568524]
   ...
   [-0.02746151  0.01957223  0.01067663 ...  0.02656503  0.00971698
     0.0222648 ]
   [-0.02133255 -0.03446139 -0.01628944 ... -0.0275834  -0.03111311
     0.03223544]
   [ 0.02779989 -0.0137688   0.0101373  ... -0.00628933  0.03106449
     0.01084261]]]


 [[[-0.01990388  0.01425364  0.00979583 ...  0.0169175   0.00255102
     0.00743023]
   [-0.01560421 -0.01584904  0.01767918 ...  0.00163703  0.00288412
    -0.02052274]
   [ 0.01301786  0.01701105  0.00400553 ...  0.03171971  0.00732661
     0.00061306]
   ...
   [ 0.03599869 -0.02356047  0.03070644 ... -0.02735458  0.02084468
    -0.03540312]
   [-0.01385565  0.01768088 -0.00986339 ... -0.02940793  0.03328416
    -0.02006934]
   [-0.0351663  -0.03550877 -0.00997994 ...  0.02947376  0.03445119
     0.0110782 ]]

  [[ 0.01680305  0.02741873 -0.021586   ... -0.03365302 -0.03118707
    -0.03205337]
   [ 0.03269191  0.0065819  -0.01319654 ... -0.02289252 -0.01736774
     0.01492938]
   [-0.0019397   0.02724371  0.03296677 ... -0.00830914  0.00353144
    -0.00279939]
   ...
   [-0.02062634  0.03395566  0.0098313  ... -0.01642971  0.02898137
    -0.02381488]
   [-0.02827095 -0.00870046 -0.02351388 ... -0.02480902 -0.00181424
     0.01357801]
   [-0.0314059  -0.00623111  0.00280075 ...  0.01748828  0.02263613
     0.00650841]]

  [[ 0.01292752 -0.00961049 -0.0247284  ... -0.02901909  0.02030149
     0.00772917]
   [ 0.01811624  0.00529099 -0.00869654 ...  0.03373383  0.007717
    -0.02938252]
   [-0.02105583  0.00300378 -0.01306165 ... -0.00832364 -0.01704723
    -0.03553353]
   ...
   [ 0.03329312 -0.03194371 -0.01232572 ... -0.01747472  0.00417626
     0.01071902]
   [ 0.0343086   0.00419053 -0.02255625 ... -0.02670977  0.01194583
    -0.00450671]
   [ 0.01905876  0.02522581  0.02175736 ... -0.0054116   0.02458951
    -0.00914141]]]]
[0. 0. 0. 0. 0. 0. 0. 0. 0. 0. 0. 0. 0. 0. 0. 0. 0. 0. 0. 0. 0. 0. 0. 0.
 0. 0. 0. 0. 0. 0. 0. 0. 0. 0. 0. 0. 0. 0. 0. 0. 0. 0. 0. 0. 0. 0. 0. 0.
 0. 0. 0. 0. 0. 0. 0. 0. 0. 0. 0. 0. 0. 0. 0. 0. 0. 0. 0. 0. 0. 0. 0. 0.
 0. 0. 0. 0. 0. 0. 0. 0. 0. 0. 0. 0. 0. 0. 0. 0. 0. 0. 0. 0. 0. 0. 0. 0.
 0. 0. 0. 0. 0. 0. 0. 0. 0. 0. 0. 0. 0. 0. 0. 0. 0. 0. 0. 0. 0. 0. 0. 0.
 0. 0. 0. 0. 0. 0. 0. 0. 0. 0. 0. 0. 0. 0. 0. 0. 0. 0. 0. 0. 0. 0. 0. 0.
 0. 0. 0. 0. 0. 0. 0. 0. 0. 0. 0. 0. 0. 0. 0. 0. 0. 0. 0. 0. 0. 0. 0. 0.
 0. 0. 0. 0. 0. 0. 0. 0. 0. 0. 0. 0. 0. 0. 0. 0. 0. 0. 0. 0. 0. 0. 0. 0.
 0. 0. 0. 0. 0. 0. 0. 0. 0. 0. 0. 0. 0. 0. 0. 0. 0. 0. 0. 0. 0. 0. 0. 0.
 0. 0. 0. 0. 0. 0. 0. 0. 0. 0. 0. 0. 0. 0. 0. 0. 0. 0. 0. 0. 0. 0. 0. 0.
 0. 0. 0. 0. 0. 0. 0. 0. 0. 0. 0. 0. 0. 0. 0. 0.]
[[[[ 2.04213914e-02 -2.53208503e-02  6.64795004e-03 ... -1.69472340e-02
     2.76123900e-02  1.76618490e-02]
   [-7.29038008e-03  1.52334291e-02 -2.67430749e-02 ...  4.65306081e-03
    -4.22945805e-03  1.75723005e-02]
   [-1.37012247e-02  3.33867781e-03  1.06216408e-03 ...  1.09296981e-02
     2.85313148e-02  1.90319922e-02]
   ...
   [-2.92144455e-02  1.37514416e-02 -2.18671616e-02 ... -2.79676169e-02
     4.53536771e-03 -2.50452794e-02]
   [-9.43689048e-03  6.26295805e-04  9.42172296e-03 ...  5.65014966e-03
    -1.04949661e-02  1.97803956e-02]
   [-2.81145964e-02 -1.89651884e-02  2.07919944e-02 ...  2.69107986e-02
    -1.02571100e-02  2.57939342e-02]]

  [[ 1.18034333e-03 -6.25575893e-03  8.37948173e-05 ... -1.16713326e-02
    -1.72247067e-02  9.08774696e-03]
   [-2.91701648e-02 -1.13297477e-02  3.50376405e-03 ...  1.57737453e-02
    -2.79669203e-02 -2.92079356e-02]
   [ 1.79543737e-02  2.18752827e-02  1.35002192e-02 ... -2.57305466e-02
     2.97657959e-03 -1.25539452e-02]
   ...
   [ 1.70152579e-02  2.82822791e-02  1.96114499e-02 ... -1.24769844e-02
    -2.87900344e-02  5.99824823e-03]
   [ 1.45286229e-02 -2.22316347e-02 -2.16436014e-02 ...  1.64146535e-03
    -2.89400779e-02 -1.28294583e-02]
   [-1.79226380e-02  7.50547461e-03 -4.93151881e-03 ...  1.60732698e-02
    -4.69636172e-04  2.85507552e-03]]

  [[ 1.57001447e-02  2.58685555e-02  2.09960621e-02 ...  2.28048321e-02
    -1.69366412e-02 -2.70919669e-02]
   [-1.80945694e-02  1.86141711e-02  2.36682873e-02 ... -1.88830458e-02
    -5.18139265e-03 -1.37977116e-02]
   [ 9.98545997e-03  2.55193207e-02  6.36346452e-03 ... -2.46841796e-02
    -5.95938228e-03 -2.09568106e-02]
   ...
   [ 1.19029302e-02 -1.05363689e-03 -8.13763589e-03 ... -4.60531563e-04
    -1.80215761e-03  6.39000349e-03]
   [-6.06397539e-03 -5.57263568e-03 -2.37394869e-03 ... -9.51224193e-03
    -2.60310881e-02  2.64869984e-02]
   [-2.32254844e-02 -2.06844099e-02  2.04653647e-02 ...  1.30031239e-02
     1.55498181e-02 -1.11422930e-02]]]


 [[[-7.86234066e-03 -2.55862251e-03  1.99913401e-02 ... -2.16717981e-02
     4.66315635e-03 -1.53078698e-03]
   [ 1.77565534e-02 -3.22304666e-04  7.29453005e-03 ... -4.77999263e-03
    -5.21105714e-03  5.73152117e-03]
   [-2.08213665e-02  2.83918325e-02  2.77894605e-02 ...  5.78543358e-03
    -8.46718252e-03  1.29803438e-02]
   ...
   [-2.28279978e-02  6.79945387e-03 -1.98991001e-02 ... -3.53395753e-03
    -4.65937704e-03 -2.55495738e-02]
   [ 8.79667699e-04 -1.85700841e-02  5.41690923e-03 ... -5.16641885e-05
     1.78945530e-02 -1.87343433e-02]
   [-1.58631187e-02 -1.10983830e-02  2.44324636e-02 ...  2.19446365e-02
    -2.01110430e-02 -1.50958067e-02]]

  [[-2.32380722e-02  4.37791087e-03  2.47532781e-02 ...  4.59524430e-03
     2.58945953e-02 -1.27326120e-02]
   [ 4.83115949e-03  4.49942239e-03  3.23653407e-03 ... -1.77079067e-02
     1.83448102e-02 -2.71225087e-02]
   [-6.95829652e-03  1.74866375e-02  1.23750810e-02 ...  6.53753988e-03
    -2.77099647e-02  1.34867597e-02]
   ...
   [ 1.79856848e-02 -4.84398007e-03  1.38165858e-02 ...  4.49427404e-03
    -1.10007823e-05  2.62326282e-02]
   [-1.28658041e-02 -1.81276202e-02 -1.98591724e-02 ... -7.20949844e-04
     2.52486207e-03  1.28273163e-02]
   [-2.81811953e-02  8.13482516e-03 -1.56975016e-02 ... -2.40680352e-02
     7.88146630e-04 -9.76540335e-03]]

  [[-2.63834354e-02  2.25781444e-02  5.42985462e-03 ... -9.49288905e-03
    -2.46823877e-02 -1.95826329e-02]
   [ 6.45226799e-03 -8.03037919e-03  2.20720302e-02 ... -1.82179883e-02
     3.77651863e-03 -7.09304772e-03]
   [-1.39586292e-02 -1.58345699e-03  2.83635352e-02 ... -4.41892073e-03
    -5.83371334e-03  1.15239825e-02]
   ...
   [-1.84425525e-03 -1.73934922e-02 -2.63539050e-02 ...  6.22729398e-03
    -2.80036945e-02 -3.42499278e-03]
   [ 1.99486129e-03  1.49615500e-02  1.99637953e-02 ... -2.68754866e-02
     7.64354132e-03 -2.72588599e-02]
   [-7.28154182e-03 -1.62823536e-02  2.37806570e-02 ...  2.75011715e-02
     2.70281974e-02  5.90612926e-03]]]


 [[[ 2.31492762e-02  1.55581776e-02 -2.50246376e-04 ... -2.76721939e-02
    -2.85349768e-02 -8.05493072e-03]
   [ 1.04423109e-02 -2.53208503e-02 -2.77864337e-02 ...  1.32030901e-02
    -1.13837030e-02 -1.97241083e-04]
   [ 2.70602573e-02  1.34694148e-02 -2.31126584e-02 ... -2.14696825e-02
    -2.28631683e-02 -2.79795155e-02]
   ...
   [ 2.88120713e-02  4.35855426e-03  1.75415184e-02 ...  2.42157821e-02
    -1.39342472e-02 -2.54787114e-02]
   [-1.26556456e-02 -1.34669431e-02  2.59750765e-02 ... -1.70291886e-02
    -1.60896722e-02 -9.65785980e-03]
   [ 9.55850445e-03 -1.36703867e-02 -5.47447614e-03 ... -6.40831515e-03
    -2.59069446e-02  2.65687201e-02]]

  [[ 2.72789877e-02 -1.13807060e-03  1.17850322e-02 ...  2.45448481e-02
     1.63952243e-02 -2.78718583e-02]
   [ 6.57683425e-03 -2.45979615e-03  1.10070202e-02 ...  2.06478816e-02
    -1.33615062e-02  9.50339250e-03]
   [ 9.91596095e-03  1.87616479e-02 -1.19489618e-02 ...  6.63925894e-03
    -2.88654212e-02  2.24623661e-02]
   ...
   [-2.88342610e-02 -1.69158541e-03 -2.75319163e-02 ...  2.75941808e-02
     6.49628974e-03  2.53682230e-02]
   [ 2.16756184e-02 -3.03689763e-03 -5.16867265e-04 ...  3.39168496e-03
    -1.14882961e-02 -2.01574471e-02]
   [-1.10556949e-02  2.66665425e-02  1.50088090e-02 ...  1.01038627e-03
    -1.48715787e-02  6.10352494e-03]]

  [[-5.85995615e-04 -1.71278603e-02  1.72823500e-02 ...  2.11452879e-03
    -9.18099470e-03 -1.02112964e-02]
   [ 2.29459163e-02 -8.07724707e-03  1.82034429e-02 ...  3.54801305e-03
     1.09259952e-02 -6.24798238e-04]
   [-1.13587379e-02  1.42858159e-02  7.22844340e-03 ...  5.67591749e-03
     2.68368777e-02 -1.33486297e-02]
   ...
   [-1.22267753e-04 -1.55590782e-02 -4.13422659e-03 ... -3.43395025e-03
     1.10157374e-02  2.73559820e-02]
   [-1.96413659e-02  1.06818732e-02 -3.54888476e-03 ...  2.66167615e-02
     5.71785308e-03 -2.90581957e-04]
   [ 1.85579304e-02 -5.73631935e-03  1.62505340e-02 ... -2.50222329e-02
     2.88909394e-02 -1.11880638e-02]]]]
[0. 0. 0. 0. 0. 0. 0. 0. 0. 0. 0. 0. 0. 0. 0. 0. 0. 0. 0. 0. 0. 0. 0. 0.
 0. 0. 0. 0. 0. 0. 0. 0. 0. 0. 0. 0. 0. 0. 0. 0. 0. 0. 0. 0. 0. 0. 0. 0.
 0. 0. 0. 0. 0. 0. 0. 0. 0. 0. 0. 0. 0. 0. 0. 0. 0. 0. 0. 0. 0. 0. 0. 0.
 0. 0. 0. 0. 0. 0. 0. 0. 0. 0. 0. 0. 0. 0. 0. 0. 0. 0. 0. 0. 0. 0. 0. 0.
 0. 0. 0. 0. 0. 0. 0. 0. 0. 0. 0. 0. 0. 0. 0. 0. 0. 0. 0. 0. 0. 0. 0. 0.
 0. 0. 0. 0. 0. 0. 0. 0. 0. 0. 0. 0. 0. 0. 0. 0. 0. 0. 0. 0. 0. 0. 0. 0.
 0. 0. 0. 0. 0. 0. 0. 0. 0. 0. 0. 0. 0. 0. 0. 0. 0. 0. 0. 0. 0. 0. 0. 0.
 0. 0. 0. 0. 0. 0. 0. 0. 0. 0. 0. 0. 0. 0. 0. 0. 0. 0. 0. 0. 0. 0. 0. 0.
 0. 0. 0. 0. 0. 0. 0. 0. 0. 0. 0. 0. 0. 0. 0. 0. 0. 0. 0. 0. 0. 0. 0. 0.
 0. 0. 0. 0. 0. 0. 0. 0. 0. 0. 0. 0. 0. 0. 0. 0. 0. 0. 0. 0. 0. 0. 0. 0.
 0. 0. 0. 0. 0. 0. 0. 0. 0. 0. 0. 0. 0. 0. 0. 0. 0. 0. 0. 0. 0. 0. 0. 0.
 0. 0. 0. 0. 0. 0. 0. 0. 0. 0. 0. 0. 0. 0. 0. 0. 0. 0. 0. 0. 0. 0. 0. 0.
 0. 0. 0. 0. 0. 0. 0. 0. 0. 0. 0. 0. 0. 0. 0. 0. 0. 0. 0. 0. 0. 0. 0. 0.
 0. 0. 0. 0. 0. 0. 0. 0. 0. 0. 0. 0. 0. 0. 0. 0. 0. 0. 0. 0. 0. 0. 0. 0.
 0. 0. 0. 0. 0. 0. 0. 0. 0. 0. 0. 0. 0. 0. 0. 0. 0. 0. 0. 0. 0. 0. 0. 0.
 0. 0. 0. 0. 0. 0. 0. 0. 0. 0. 0. 0. 0. 0. 0. 0. 0. 0. 0. 0. 0. 0. 0. 0.
 0. 0. 0. 0. 0. 0. 0. 0. 0. 0. 0. 0. 0. 0. 0. 0. 0. 0. 0. 0. 0. 0. 0. 0.
 0. 0. 0. 0. 0. 0. 0. 0. 0. 0. 0. 0. 0. 0. 0. 0. 0. 0. 0. 0. 0. 0. 0. 0.
 0. 0. 0. 0. 0. 0. 0. 0. 0. 0. 0. 0. 0. 0. 0. 0. 0. 0. 0. 0. 0. 0. 0. 0.
 0. 0. 0. 0. 0. 0. 0. 0. 0. 0. 0. 0. 0. 0. 0. 0. 0. 0. 0. 0. 0. 0. 0. 0.
 0. 0. 0. 0. 0. 0. 0. 0. 0. 0. 0. 0. 0. 0. 0. 0. 0. 0. 0. 0. 0. 0. 0. 0.
 0. 0. 0. 0. 0. 0. 0. 0.]
[[[[-1.08520519e-02  7.99207017e-03  2.27607600e-03 ...  1.78318284e-02
     7.54557177e-03 -2.45451927e-04]
   [-1.31751942e-02  9.41606611e-03 -6.99378178e-03 ... -9.61519778e-03
     2.96577811e-03  8.69313255e-04]
   [ 4.53494862e-03 -1.87813882e-02  2.06231363e-02 ... -1.33820474e-02
    -3.90432216e-03 -1.55398203e-02]
   ...
   [ 4.24244069e-03 -2.14089863e-02  3.40790674e-03 ... -2.30262578e-02
     7.91949406e-03 -1.14202499e-03]
   [-2.46736966e-02  9.00856405e-03  1.69668533e-02 ...  2.96077877e-03
    -2.35970914e-02 -2.30500679e-02]
   [-1.35697378e-02 -2.88039446e-05  8.45562667e-03 ... -1.28251212e-02
    -1.26201715e-02  2.47763470e-02]]

  [[ 7.81275705e-03 -1.81505848e-02  8.94679502e-03 ...  1.17871985e-02
     1.15228407e-02 -8.61009024e-03]
   [-1.12490766e-02 -9.49903019e-03 -1.45160612e-02 ...  2.16994919e-02
     2.22098008e-02 -2.50763968e-02]
   [-1.51739661e-02 -2.15080120e-02  8.85716081e-03 ...  1.53452605e-02
    -2.35143453e-02  8.56963545e-03]
   ...
   [ 1.27005167e-02  2.04325430e-02 -4.69815917e-03 ... -2.11110469e-02
     2.15267055e-02  1.69192143e-02]
   [ 2.22297050e-02 -1.19697805e-02 -1.08962711e-02 ... -1.44350734e-02
     2.24937387e-02  2.61802785e-03]
   [ 5.63828461e-03 -2.29838379e-02 -6.64413348e-03 ... -8.45309161e-03
     7.17873871e-03  1.51304714e-02]]

  [[ 2.05894224e-02 -9.78055038e-03 -1.57011393e-02 ...  8.59479606e-03
    -1.46684982e-02  1.70068368e-02]
   [-1.25571303e-02  4.60953638e-03 -1.85940322e-02 ...  1.66502595e-03
    -8.26032646e-03 -2.21941862e-02]
   [ 2.35495083e-02 -2.06423588e-02  1.75012648e-02 ...  1.19366497e-02
    -2.36671716e-02 -1.47313522e-02]
   ...
   [ 6.90501928e-03 -1.57409497e-02 -1.14587704e-02 ...  6.26141578e-03
     6.63149729e-03 -2.22910009e-03]
   [ 3.57655622e-03 -1.03135388e-02 -1.73856374e-02 ...  4.48584929e-03
    -1.62894260e-02 -2.47553829e-02]
   [-2.42957659e-02  2.07711756e-02 -2.54097655e-02 ... -2.42938679e-02
     2.41689160e-02  9.97725129e-03]]]


 [[[ 1.59670301e-02  1.40602663e-02 -2.05758866e-02 ...  1.66045390e-02
     3.50256264e-03 -1.15730101e-02]
   [-1.24223102e-02 -7.49881752e-03  1.76226944e-02 ...  1.13659427e-02
    -1.84261017e-02 -1.27860345e-03]
   [ 2.54326575e-02  1.12574957e-02  1.05190426e-02 ... -5.19743375e-03
    -2.50591747e-02  9.66985896e-03]
   ...
   [ 2.48846114e-02 -1.03692142e-02  6.78129494e-03 ... -1.87173299e-02
    -8.97947885e-03 -7.19792768e-03]
   [ 7.91667774e-03  6.54436648e-04  1.28926598e-02 ... -2.33436748e-03
    -1.82707570e-02  1.38994679e-03]
   [ 3.09710018e-03 -1.37930736e-03 -7.67987594e-03 ... -1.90822110e-02
    -1.92198474e-02  6.90245256e-03]]

  [[-1.35817826e-02  1.12203695e-02  1.20586082e-02 ... -2.10207757e-02
     9.63754952e-03 -2.52858531e-02]
   [ 6.50905073e-03 -1.21179344e-02 -1.79316029e-02 ...  6.34371862e-03
    -1.59500167e-04  1.99455284e-02]
   [-1.54401986e-02 -1.18256649e-02  6.86685741e-03 ...  2.28821412e-02
    -2.07579620e-02 -9.65427235e-03]
   ...
   [-1.21299066e-02  1.32909901e-02  1.69613957e-02 ... -7.41819292e-03
     9.79337841e-03  1.11309811e-02]
   [-6.42676838e-03  2.37739421e-02 -1.24381576e-02 ... -1.71330869e-02
    -1.36006782e-02  9.95794311e-03]
   [-1.89655386e-02  6.67875260e-03 -1.52336378e-02 ...  2.36859135e-02
    -8.55757296e-03 -1.07073952e-02]]

  [[ 2.41816491e-02 -9.32503864e-03  2.81921774e-03 ...  1.68339238e-02
    -2.46865116e-03 -1.00976648e-02]
   [ 2.17717551e-02  1.18531026e-02  6.12139702e-04 ...  1.82050876e-02
     2.12870724e-03  1.64401717e-02]
   [-2.27201898e-02 -1.46688335e-03  3.92159261e-03 ... -1.57069042e-03
     3.71547416e-04  2.04572119e-02]
   ...
   [-8.42436031e-03  2.09988691e-02  6.64658472e-03 ... -5.67518547e-03
     5.06039709e-04  1.16488077e-02]
   [-1.18421633e-02  1.12774149e-02  2.99092196e-03 ...  1.37394927e-02
     5.04015945e-03 -2.38417089e-02]
   [-2.11921148e-02  2.14320906e-02 -2.02669054e-02 ...  1.78587176e-02
    -2.11853366e-02 -2.48821490e-02]]]


 [[[-4.49493527e-05  2.50700228e-02 -8.87266733e-03 ... -2.77823955e-03
    -2.19876543e-02  2.23508999e-02]
   [-1.45650208e-02  3.40624526e-03  7.81238452e-03 ...  1.63089037e-02
    -2.24811621e-02  1.65037736e-02]
   [-1.98973529e-02  2.94247270e-03 -1.24381632e-02 ... -1.51874283e-02
    -4.63782437e-03  2.58497708e-03]
   ...
   [ 1.32534876e-02  1.18694305e-02  1.51690766e-02 ...  1.23891495e-02
     1.00033842e-02  8.72902572e-04]
   [ 1.85051411e-02 -1.22014293e-02  2.17113979e-02 ... -4.01674211e-03
    -9.98615660e-03 -2.27752384e-02]
   [-2.07298994e-02  2.07637548e-02  1.50464959e-02 ... -2.81326845e-03
     6.89182803e-03 -2.90474482e-03]]

  [[ 1.36604421e-02  2.46530734e-02  2.53088437e-02 ... -2.95213982e-03
     1.77751146e-02 -4.58121859e-03]
   [-1.94078367e-02  6.07126951e-03 -8.47369619e-03 ...  2.33181491e-02
     5.87346777e-03  2.19696797e-02]
   [ 3.60793993e-03  5.79204783e-03  1.79903917e-02 ... -2.31104884e-02
     1.56873129e-02  9.27538052e-03]
   ...
   [-1.20731816e-03 -1.33297034e-03 -1.06438659e-02 ...  6.57246634e-03
     2.10788399e-02 -1.36413760e-02]
   [-2.17147432e-02  1.27869174e-02 -1.36331934e-02 ...  7.40044937e-03
    -1.42867062e-02  1.84558779e-02]
   [ 8.28606635e-03 -9.80818644e-03  6.91588968e-04 ...  2.14844011e-03
    -4.06995416e-03 -1.30295586e-02]]

  [[-2.41565611e-02 -8.93771648e-05 -2.11394206e-03 ...  1.48639344e-02
    -8.04834068e-03 -5.45413978e-03]
   [-2.13329140e-02 -1.19625535e-02  1.08712763e-02 ...  1.32639147e-02
     5.88212907e-03 -1.97512675e-02]
   [ 6.64126128e-05 -1.51907261e-02 -7.03469105e-03 ... -1.47667937e-02
     2.40624137e-02 -1.60054415e-02]
   ...
   [ 2.05277056e-02 -5.08606434e-04  7.27850199e-03 ... -1.88598949e-02
     1.69666894e-02  6.54369593e-03]
   [-2.52821483e-02  2.15180665e-02 -2.36051138e-02 ...  4.01867740e-03
    -3.09480168e-03 -8.10537487e-04]
   [ 8.54720548e-03 -1.15387700e-03  1.01286732e-02 ...  6.59675151e-03
    -6.80270791e-03 -1.64018013e-03]]]]
[0. 0. 0. 0. 0. 0. 0. 0. 0. 0. 0. 0. 0. 0. 0. 0. 0. 0. 0. 0. 0. 0. 0. 0.
 0. 0. 0. 0. 0. 0. 0. 0. 0. 0. 0. 0. 0. 0. 0. 0. 0. 0. 0. 0. 0. 0. 0. 0.
 0. 0. 0. 0. 0. 0. 0. 0. 0. 0. 0. 0. 0. 0. 0. 0. 0. 0. 0. 0. 0. 0. 0. 0.
 0. 0. 0. 0. 0. 0. 0. 0. 0. 0. 0. 0. 0. 0. 0. 0. 0. 0. 0. 0. 0. 0. 0. 0.
 0. 0. 0. 0. 0. 0. 0. 0. 0. 0. 0. 0. 0. 0. 0. 0. 0. 0. 0. 0. 0. 0. 0. 0.
 0. 0. 0. 0. 0. 0. 0. 0. 0. 0. 0. 0. 0. 0. 0. 0. 0. 0. 0. 0. 0. 0. 0. 0.
 0. 0. 0. 0. 0. 0. 0. 0. 0. 0. 0. 0. 0. 0. 0. 0. 0. 0. 0. 0. 0. 0. 0. 0.
 0. 0. 0. 0. 0. 0. 0. 0. 0. 0. 0. 0. 0. 0. 0. 0. 0. 0. 0. 0. 0. 0. 0. 0.
 0. 0. 0. 0. 0. 0. 0. 0. 0. 0. 0. 0. 0. 0. 0. 0. 0. 0. 0. 0. 0. 0. 0. 0.
 0. 0. 0. 0. 0. 0. 0. 0. 0. 0. 0. 0. 0. 0. 0. 0. 0. 0. 0. 0. 0. 0. 0. 0.
 0. 0. 0. 0. 0. 0. 0. 0. 0. 0. 0. 0. 0. 0. 0. 0. 0. 0. 0. 0. 0. 0. 0. 0.
 0. 0. 0. 0. 0. 0. 0. 0. 0. 0. 0. 0. 0. 0. 0. 0. 0. 0. 0. 0. 0. 0. 0. 0.
 0. 0. 0. 0. 0. 0. 0. 0. 0. 0. 0. 0. 0. 0. 0. 0. 0. 0. 0. 0. 0. 0. 0. 0.
 0. 0. 0. 0. 0. 0. 0. 0. 0. 0. 0. 0. 0. 0. 0. 0. 0. 0. 0. 0. 0. 0. 0. 0.
 0. 0. 0. 0. 0. 0. 0. 0. 0. 0. 0. 0. 0. 0. 0. 0. 0. 0. 0. 0. 0. 0. 0. 0.
 0. 0. 0. 0. 0. 0. 0. 0. 0. 0. 0. 0. 0. 0. 0. 0. 0. 0. 0. 0. 0. 0. 0. 0.
 0. 0. 0. 0. 0. 0. 0. 0. 0. 0. 0. 0. 0. 0. 0. 0. 0. 0. 0. 0. 0. 0. 0. 0.
 0. 0. 0. 0. 0. 0. 0. 0. 0. 0. 0. 0. 0. 0. 0. 0. 0. 0. 0. 0. 0. 0. 0. 0.
 0. 0. 0. 0. 0. 0. 0. 0. 0. 0. 0. 0. 0. 0. 0. 0. 0. 0. 0. 0. 0. 0. 0. 0.
 0. 0. 0. 0. 0. 0. 0. 0. 0. 0. 0. 0. 0. 0. 0. 0. 0. 0. 0. 0. 0. 0. 0. 0.
 0. 0. 0. 0. 0. 0. 0. 0. 0. 0. 0. 0. 0. 0. 0. 0. 0. 0. 0. 0. 0. 0. 0. 0.
 0. 0. 0. 0. 0. 0. 0. 0.]
[[[[ 1.94902159e-02 -1.23578748e-02 -1.89877860e-02 ...  1.95656680e-02
     2.92962417e-04 -2.41777301e-02]
   [ 6.91995397e-03  2.38701627e-02  1.90272182e-02 ...  6.88909739e-03
    -2.52788886e-02 -1.42512396e-02]
   [-1.71804633e-02 -1.68207549e-02  1.65226422e-02 ... -7.39561208e-03
    -2.16244105e-02 -1.49465753e-02]
   ...
   [ 5.36113791e-03  4.79316898e-03  1.64543167e-02 ... -1.49598066e-02
    -1.06352763e-02  2.39858963e-02]
   [-6.42143190e-04 -1.28317457e-02 -5.74580207e-03 ... -3.41342390e-03
    -4.15182300e-03 -1.58916768e-02]
   [-7.74507225e-03  2.07975283e-02  2.33142823e-03 ... -6.95423223e-03
    -3.44917551e-03  2.14708671e-02]]

  [[-1.12389177e-02 -1.37721803e-02  1.64152011e-02 ...  1.49510466e-02
     8.43408704e-03 -1.12751620e-02]
   [-2.49845795e-02  1.14103332e-02 -1.37508456e-02 ...  1.69681050e-02
    -2.03549992e-02 -6.38647750e-03]
   [-2.13304926e-02 -1.40468506e-02 -1.33299315e-02 ...  6.41478226e-03
    -2.43388489e-03  9.56907868e-03]
   ...
   [ 5.82082197e-03 -1.53410882e-02  4.09276597e-03 ... -8.63975286e-03
    -1.13363797e-02 -1.33904489e-02]
   [ 2.46516876e-02 -8.41139629e-03 -4.78377566e-04 ...  3.49977799e-03
     1.96163617e-02  1.81180425e-03]
   [-4.82996181e-03  3.86716425e-03  8.76499340e-03 ... -1.96610689e-02
     1.87879652e-02  1.12570040e-02]]

  [[-1.70855634e-02 -1.11254929e-02 -2.41131075e-02 ... -8.74464959e-03
    -1.20006502e-04  1.90710239e-02]
   [-1.45314643e-02  7.98603520e-03  1.87630355e-02 ...  1.75707489e-02
    -1.78801119e-02  2.00001374e-02]
   [-2.36483496e-02 -2.41197310e-02 -2.09885649e-02 ... -1.20151564e-02
     9.84221324e-03 -1.25420010e-02]
   ...
   [ 4.54918295e-03  1.56340078e-02 -1.15859983e-02 ...  4.75231931e-03
    -8.71119089e-03 -1.72703210e-02]
   [-6.60436228e-04 -3.32059711e-03  1.53262094e-02 ...  1.27273723e-02
    -1.26249958e-02  7.45563209e-03]
   [ 1.40525401e-03  2.26187445e-02  1.46493614e-02 ...  7.96211511e-03
    -2.45869588e-02 -1.90447569e-02]]]


 [[[-7.32017308e-03 -2.69832835e-03 -2.44721472e-02 ... -2.27753073e-03
     1.83600001e-02 -1.34434467e-02]
   [ 1.22887604e-02  1.53236538e-02 -2.31409166e-02 ... -1.73630081e-02
    -1.07921474e-03  9.71659645e-03]
   [-1.03474595e-03 -8.04190338e-03  1.68532096e-02 ...  2.46758759e-03
    -8.11032951e-05  9.66132805e-03]
   ...
   [ 7.83730298e-03 -8.31201673e-04  1.65543146e-03 ... -1.85978785e-02
     1.13991238e-02  1.18792653e-02]
   [ 1.22770891e-02 -3.18299979e-04  3.78224067e-03 ... -1.42234387e-02
    -2.74550542e-03  2.02308297e-02]
   [-7.60166161e-03 -5.95188700e-03  1.77754648e-02 ... -1.72761492e-02
    -9.52740200e-03 -6.91799447e-03]]

  [[-9.52292234e-04  9.63764265e-04 -2.22005919e-02 ... -1.88075714e-02
     3.17631289e-04 -1.97142437e-02]
   [ 1.90307163e-02 -1.76455975e-02  8.54425132e-03 ... -2.11259574e-02
    -1.50707252e-02  2.25535966e-02]
   [-1.88971125e-02 -5.19310310e-03  2.99708918e-03 ...  1.48778111e-02
    -1.55785838e-02 -5.36045060e-03]
   ...
   [-2.77957879e-03  2.34235674e-02  2.06739679e-02 ...  1.94546096e-02
    -2.53939852e-02 -3.49446014e-03]
   [ 5.14558516e-03  1.93820745e-02  7.38032535e-03 ...  2.40864307e-02
    -2.24075653e-02 -7.81925768e-03]
   [ 7.37857446e-03  1.80361681e-02 -1.43663129e-02 ... -1.85854733e-02
     2.25247815e-02  1.30368583e-02]]

  [[ 1.25188641e-02 -7.66097568e-03  1.76420510e-02 ... -2.31923945e-02
    -1.39218317e-02  2.13050768e-02]
   [-1.68236420e-02 -2.36022659e-03 -1.80493817e-02 ... -4.07891348e-03
    -3.92033905e-03  1.31732374e-02]
   [-4.13666293e-03 -7.02337734e-03 -5.21587208e-03 ...  2.17960589e-02
    -1.38884820e-02 -8.65774229e-03]
   ...
   [-1.83512326e-02 -1.06411474e-02  1.93702616e-03 ...  6.77761436e-03
    -7.24083371e-03 -2.05502212e-02]
   [ 2.26528123e-02 -7.66830519e-03 -2.04343144e-02 ... -4.43373248e-03
    -2.04287916e-02 -7.60783069e-03]
   [-6.71066158e-03 -3.37475725e-03 -1.46261416e-03 ... -6.31808303e-03
    -2.71923840e-03 -1.16029587e-02]]]


 [[[-1.28452992e-02 -6.63387030e-03  1.88021213e-02 ... -5.89354895e-03
    -2.09202729e-02  2.44418345e-03]
   [ 1.74621046e-02 -2.67625228e-03  1.30545907e-02 ... -1.93339847e-02
     1.54286847e-02  1.57120824e-03]
   [-1.87815838e-02 -5.40754758e-03 -2.22662985e-02 ... -1.83094647e-02
     1.05609968e-02 -1.64391622e-02]
   ...
   [ 2.50436850e-02 -6.75211847e-03 -2.31900942e-02 ...  2.23289765e-02
     1.69738419e-02 -5.96011244e-03]
   [ 1.03882141e-03 -1.21709574e-02  1.54747069e-03 ... -7.07027316e-03
    -8.35707784e-03 -1.44912964e-02]
   [ 2.45872587e-02 -5.30414842e-03 -2.46174671e-02 ... -9.39108618e-03
     6.21379539e-03  5.15271537e-03]]

  [[-1.02953501e-02  1.22491084e-03  9.46060568e-03 ... -1.47179868e-02
     1.85268782e-02 -1.45637803e-03]
   [-2.32482087e-02  6.40081242e-04  3.60933319e-03 ... -5.58319315e-03
     1.99755915e-02  1.01991519e-02]
   [ 6.61083311e-03  1.43247619e-02 -1.03553133e-02 ...  1.73766948e-02
    -1.28602609e-03 -1.72002222e-02]
   ...
   [ 1.05404779e-02  1.00364164e-02  9.81083512e-03 ...  1.54267177e-02
     1.62153840e-02 -9.68266837e-03]
   [ 1.15889870e-02  2.34666131e-02  9.49870795e-04 ... -1.77430734e-03
     1.89876743e-02 -2.34583896e-02]
   [-2.07439996e-03 -8.51643085e-03  8.49005952e-03 ... -1.73688605e-02
     4.89676371e-03 -2.30619907e-02]]

  [[-2.14984640e-03 -4.97584604e-03 -2.50418670e-02 ... -2.34520379e-02
     1.66716501e-02 -4.79510427e-03]
   [ 7.59220123e-03 -8.36882368e-03  2.22006589e-02 ... -2.36021336e-02
    -6.93144463e-03  1.74296498e-02]
   [ 1.10180415e-02 -1.57443546e-02  8.78531113e-03 ... -4.21294384e-03
     2.13113315e-02 -1.81124248e-02]
   ...
   [-2.08935551e-02 -1.07861320e-02  4.97201458e-03 ...  5.29639795e-03
     1.76652111e-02 -1.05301924e-02]
   [-1.34647572e-02  1.35956109e-02 -1.90437641e-02 ... -1.11926412e-02
    -2.44726408e-02 -2.54940018e-02]
   [ 8.03587958e-03 -1.45507120e-02  1.94372982e-03 ...  1.33159459e-02
     4.81803156e-03  2.45273300e-02]]]]
[0. 0. 0. 0. 0. 0. 0. 0. 0. 0. 0. 0. 0. 0. 0. 0. 0. 0. 0. 0. 0. 0. 0. 0.
 0. 0. 0. 0. 0. 0. 0. 0. 0. 0. 0. 0. 0. 0. 0. 0. 0. 0. 0. 0. 0. 0. 0. 0.
 0. 0. 0. 0. 0. 0. 0. 0. 0. 0. 0. 0. 0. 0. 0. 0. 0. 0. 0. 0. 0. 0. 0. 0.
 0. 0. 0. 0. 0. 0. 0. 0. 0. 0. 0. 0. 0. 0. 0. 0. 0. 0. 0. 0. 0. 0. 0. 0.
 0. 0. 0. 0. 0. 0. 0. 0. 0. 0. 0. 0. 0. 0. 0. 0. 0. 0. 0. 0. 0. 0. 0. 0.
 0. 0. 0. 0. 0. 0. 0. 0. 0. 0. 0. 0. 0. 0. 0. 0. 0. 0. 0. 0. 0. 0. 0. 0.
 0. 0. 0. 0. 0. 0. 0. 0. 0. 0. 0. 0. 0. 0. 0. 0. 0. 0. 0. 0. 0. 0. 0. 0.
 0. 0. 0. 0. 0. 0. 0. 0. 0. 0. 0. 0. 0. 0. 0. 0. 0. 0. 0. 0. 0. 0. 0. 0.
 0. 0. 0. 0. 0. 0. 0. 0. 0. 0. 0. 0. 0. 0. 0. 0. 0. 0. 0. 0. 0. 0. 0. 0.
 0. 0. 0. 0. 0. 0. 0. 0. 0. 0. 0. 0. 0. 0. 0. 0. 0. 0. 0. 0. 0. 0. 0. 0.
 0. 0. 0. 0. 0. 0. 0. 0. 0. 0. 0. 0. 0. 0. 0. 0. 0. 0. 0. 0. 0. 0. 0. 0.
 0. 0. 0. 0. 0. 0. 0. 0. 0. 0. 0. 0. 0. 0. 0. 0. 0. 0. 0. 0. 0. 0. 0. 0.
 0. 0. 0. 0. 0. 0. 0. 0. 0. 0. 0. 0. 0. 0. 0. 0. 0. 0. 0. 0. 0. 0. 0. 0.
 0. 0. 0. 0. 0. 0. 0. 0. 0. 0. 0. 0. 0. 0. 0. 0. 0. 0. 0. 0. 0. 0. 0. 0.
 0. 0. 0. 0. 0. 0. 0. 0. 0. 0. 0. 0. 0. 0. 0. 0. 0. 0. 0. 0. 0. 0. 0. 0.
 0. 0. 0. 0. 0. 0. 0. 0. 0. 0. 0. 0. 0. 0. 0. 0. 0. 0. 0. 0. 0. 0. 0. 0.
 0. 0. 0. 0. 0. 0. 0. 0. 0. 0. 0. 0. 0. 0. 0. 0. 0. 0. 0. 0. 0. 0. 0. 0.
 0. 0. 0. 0. 0. 0. 0. 0. 0. 0. 0. 0. 0. 0. 0. 0. 0. 0. 0. 0. 0. 0. 0. 0.
 0. 0. 0. 0. 0. 0. 0. 0. 0. 0. 0. 0. 0. 0. 0. 0. 0. 0. 0. 0. 0. 0. 0. 0.
 0. 0. 0. 0. 0. 0. 0. 0. 0. 0. 0. 0. 0. 0. 0. 0. 0. 0. 0. 0. 0. 0. 0. 0.
 0. 0. 0. 0. 0. 0. 0. 0. 0. 0. 0. 0. 0. 0. 0. 0. 0. 0. 0. 0. 0. 0. 0. 0.
 0. 0. 0. 0. 0. 0. 0. 0.]
[[[[ 1.22139677e-02  5.13677113e-03  1.92134231e-02 ... -1.42235309e-04
    -2.12124567e-02  1.88538432e-03]
   [ 1.89932287e-02 -1.66092161e-02  2.17187256e-02 ...  7.73853064e-03
    -5.78521006e-03  1.50505044e-02]
   [-5.57936728e-04 -2.01823413e-02 -7.45041668e-03 ... -1.43947471e-02
     9.47857648e-03  2.08749212e-02]
   ...
   [-8.65603238e-03 -2.10884102e-02  3.84625047e-03 ... -2.35668924e-02
     5.11221774e-03 -2.23726351e-02]
   [ 1.25433877e-02  3.19141708e-03 -2.30862387e-02 ... -2.04142444e-02
     2.09277719e-02  1.73111223e-02]
   [-2.05350611e-02 -1.45797804e-03 -2.41121873e-02 ...  7.95081258e-03
     2.48339996e-02 -1.26973214e-02]]

  [[-1.56061538e-02  1.26594901e-02  1.18078664e-02 ... -2.33807229e-02
    -9.19331051e-03 -1.22408979e-02]
   [ 1.83031447e-02  1.05221383e-02  2.46324576e-02 ...  1.13769993e-02
     2.99480185e-03 -1.22270361e-03]
   [ 1.09789707e-02  6.17286563e-03  1.38556696e-02 ...  1.67395398e-02
    -1.29377358e-02  1.38581172e-03]
   ...
   [-1.47608565e-02 -1.04602762e-02  1.20570399e-02 ... -7.80287012e-03
    -1.88616645e-02 -1.18898991e-02]
   [-1.35011962e-02  1.89519003e-02 -3.53167206e-03 ... -9.91569273e-03
     4.98250127e-03  1.00321658e-02]
   [-1.78045630e-02  6.92519173e-03  9.01628286e-03 ... -1.41685978e-02
    -1.36480676e-02  7.00467825e-03]]

  [[-3.55638377e-03  1.46971382e-02 -1.06101707e-02 ...  2.03452110e-02
     6.25258312e-03 -2.54701860e-02]
   [-4.02906165e-03  2.00430490e-02 -2.29799803e-02 ... -6.82808831e-03
     4.54538688e-03  1.37516186e-02]
   [-2.54869144e-02  5.54988533e-03 -6.77120313e-03 ... -9.89629235e-03
     1.92728713e-02 -1.62771493e-02]
   ...
   [-2.01451592e-03  1.77257285e-02 -1.43716056e-02 ... -1.48145240e-02
    -9.36501846e-03 -1.05257696e-02]
   [ 5.57029620e-03  5.31644933e-03  2.22386010e-02 ... -3.89835984e-03
     9.44387913e-03  1.58446655e-02]
   [ 1.84536912e-02  1.52446441e-02 -2.10135486e-02 ... -1.19507210e-02
     2.48089954e-02 -1.00623751e-02]]]


 [[[-1.23827197e-02 -8.72037560e-03  1.53529011e-02 ... -1.89824924e-02
    -1.87406298e-02  1.42359026e-02]
   [-2.32927948e-02  1.31880231e-02 -1.44115919e-02 ... -1.34564536e-02
    -1.15834493e-02 -1.53241279e-02]
   [-3.81319784e-03 -2.13981345e-02  2.08236612e-02 ... -1.03392228e-02
    -1.54753057e-02 -2.25981511e-03]
   ...
   [-5.16702980e-03 -2.53587868e-02  1.86215304e-02 ...  7.75519758e-04
    -2.27856841e-02 -2.21941676e-02]
   [-2.02690903e-02  1.72155537e-02  3.48297507e-03 ... -6.04439154e-03
    -3.76496464e-05  9.08147916e-03]
   [ 2.10416168e-02  1.03449523e-02 -1.64311379e-02 ... -7.65140541e-03
    -1.03095360e-02 -9.32347029e-03]]

  [[-1.40245426e-02 -1.93794258e-02 -1.32528674e-02 ... -5.77353500e-03
    -1.60922147e-02 -1.17491055e-02]
   [-2.28982940e-02 -1.81423295e-02 -2.38164086e-02 ...  9.22475383e-03
    -3.38805653e-03  8.78402963e-04]
   [-9.55620781e-03 -2.35511251e-02 -2.01124251e-02 ... -1.73343979e-02
     2.43670121e-03  8.68283585e-03]
   ...
   [-1.46445073e-03  2.42622234e-02 -1.78203192e-02 ... -1.86454505e-02
    -1.24944467e-02  1.29395351e-02]
   [-1.31245926e-02  2.03057416e-02  1.85146518e-02 ... -1.03022540e-02
     9.77973640e-03  1.58281103e-02]
   [ 6.64308667e-03 -6.00190833e-04 -1.62050426e-02 ...  2.26457678e-02
    -4.06321324e-03  1.96978077e-02]]

  [[ 1.88286863e-02 -9.66574997e-04 -3.49657796e-03 ...  2.26577446e-02
     4.14286926e-03  1.35126226e-02]
   [-1.67758204e-03  2.54418552e-02 -5.99077344e-03 ...  2.34193094e-02
    -3.27456743e-04 -1.34338839e-02]
   [ 1.26888417e-02  6.33541867e-03  8.21648538e-03 ...  2.13434808e-02
    -2.43723020e-03  1.80465728e-03]
   ...
   [ 1.89114921e-02  3.81291844e-03  2.43702866e-02 ... -5.92874363e-04
     1.70635283e-02  5.71265817e-03]
   [-6.66096061e-03 -1.87319331e-03 -5.37822582e-03 ... -1.56592540e-02
    -2.04144605e-03 -1.11941015e-02]
   [-8.19083676e-03 -1.25988191e-02 -2.31277011e-03 ...  3.56210768e-03
     1.18345954e-02  1.67673416e-02]]]


 [[[ 2.22261585e-02  1.99025720e-02 -1.46287438e-02 ...  5.67490049e-03
     1.50756352e-02  1.75943822e-02]
   [-7.53852352e-03 -1.27987368e-02 -2.11934634e-02 ...  1.69308856e-02
     6.41761348e-03 -1.31755834e-02]
   [ 1.14271194e-02  2.39697993e-02  2.53981762e-02 ...  5.29438443e-03
     2.44582295e-02 -1.71383303e-02]
   ...
   [ 1.99409239e-02  1.09178387e-02 -1.11186430e-02 ... -1.08561637e-02
    -8.68084095e-03 -6.14265539e-03]
   [ 7.60531053e-04 -1.18137905e-02  2.04868428e-02 ... -2.37259604e-02
    -2.51298882e-02  2.96128355e-03]
   [-1.37868654e-02 -2.22473368e-02  1.87327079e-02 ...  2.08603814e-02
    -2.36939564e-02  1.35995038e-02]]

  [[ 1.25111565e-02  2.37172544e-02 -1.98868476e-02 ... -1.17584867e-02
    -1.64471306e-02 -2.10753195e-02]
   [ 1.66583769e-02  7.53432512e-04  1.49134807e-02 ...  2.00178288e-02
    -1.71983056e-03 -1.19235339e-02]
   [-1.60461999e-02  6.50665537e-03  6.08433411e-03 ... -3.39196809e-03
     1.35243014e-02  3.13988514e-03]
   ...
   [-1.10684615e-02 -1.97517499e-03  9.59773734e-03 ...  1.83117874e-02
     2.45978422e-02  1.79583803e-02]
   [ 9.08162445e-03  1.36014819e-02  2.47104503e-02 ...  2.53963992e-02
     7.06761330e-03  2.34383345e-02]
   [-7.64136761e-03  2.09040679e-02  2.60199234e-03 ... -1.80439372e-02
     1.78204998e-02  9.89599898e-03]]

  [[ 1.45191886e-02 -1.17542278e-02 -8.11059028e-04 ...  1.75807364e-02
     9.44680348e-03 -1.40618887e-02]
   [-2.43043322e-02  1.71293691e-02  2.03339756e-02 ... -1.18803121e-02
    -1.57932900e-02  2.96438485e-03]
   [ 1.23043358e-02 -6.60487637e-03  8.29495490e-03 ...  1.97368748e-02
     2.33610086e-02 -8.51374120e-04]
   ...
   [-2.19705477e-02  1.89410634e-02  1.48080885e-02 ...  1.07778274e-02
     2.02083699e-02  1.56302080e-02]
   [-1.68184973e-02  5.15798293e-03 -1.97931807e-02 ...  4.05525044e-03
    -1.33875711e-02 -1.00872377e-02]
   [ 1.47868618e-02 -2.48270277e-02  1.12559795e-02 ... -1.75481848e-02
    -9.00019333e-03  6.13633543e-03]]]]
[0. 0. 0. 0. 0. 0. 0. 0. 0. 0. 0. 0. 0. 0. 0. 0. 0. 0. 0. 0. 0. 0. 0. 0.
 0. 0. 0. 0. 0. 0. 0. 0. 0. 0. 0. 0. 0. 0. 0. 0. 0. 0. 0. 0. 0. 0. 0. 0.
 0. 0. 0. 0. 0. 0. 0. 0. 0. 0. 0. 0. 0. 0. 0. 0. 0. 0. 0. 0. 0. 0. 0. 0.
 0. 0. 0. 0. 0. 0. 0. 0. 0. 0. 0. 0. 0. 0. 0. 0. 0. 0. 0. 0. 0. 0. 0. 0.
 0. 0. 0. 0. 0. 0. 0. 0. 0. 0. 0. 0. 0. 0. 0. 0. 0. 0. 0. 0. 0. 0. 0. 0.
 0. 0. 0. 0. 0. 0. 0. 0. 0. 0. 0. 0. 0. 0. 0. 0. 0. 0. 0. 0. 0. 0. 0. 0.
 0. 0. 0. 0. 0. 0. 0. 0. 0. 0. 0. 0. 0. 0. 0. 0. 0. 0. 0. 0. 0. 0. 0. 0.
 0. 0. 0. 0. 0. 0. 0. 0. 0. 0. 0. 0. 0. 0. 0. 0. 0. 0. 0. 0. 0. 0. 0. 0.
 0. 0. 0. 0. 0. 0. 0. 0. 0. 0. 0. 0. 0. 0. 0. 0. 0. 0. 0. 0. 0. 0. 0. 0.
 0. 0. 0. 0. 0. 0. 0. 0. 0. 0. 0. 0. 0. 0. 0. 0. 0. 0. 0. 0. 0. 0. 0. 0.
 0. 0. 0. 0. 0. 0. 0. 0. 0. 0. 0. 0. 0. 0. 0. 0. 0. 0. 0. 0. 0. 0. 0. 0.
 0. 0. 0. 0. 0. 0. 0. 0. 0. 0. 0. 0. 0. 0. 0. 0. 0. 0. 0. 0. 0. 0. 0. 0.
 0. 0. 0. 0. 0. 0. 0. 0. 0. 0. 0. 0. 0. 0. 0. 0. 0. 0. 0. 0. 0. 0. 0. 0.
 0. 0. 0. 0. 0. 0. 0. 0. 0. 0. 0. 0. 0. 0. 0. 0. 0. 0. 0. 0. 0. 0. 0. 0.
 0. 0. 0. 0. 0. 0. 0. 0. 0. 0. 0. 0. 0. 0. 0. 0. 0. 0. 0. 0. 0. 0. 0. 0.
 0. 0. 0. 0. 0. 0. 0. 0. 0. 0. 0. 0. 0. 0. 0. 0. 0. 0. 0. 0. 0. 0. 0. 0.
 0. 0. 0. 0. 0. 0. 0. 0. 0. 0. 0. 0. 0. 0. 0. 0. 0. 0. 0. 0. 0. 0. 0. 0.
 0. 0. 0. 0. 0. 0. 0. 0. 0. 0. 0. 0. 0. 0. 0. 0. 0. 0. 0. 0. 0. 0. 0. 0.
 0. 0. 0. 0. 0. 0. 0. 0. 0. 0. 0. 0. 0. 0. 0. 0. 0. 0. 0. 0. 0. 0. 0. 0.
 0. 0. 0. 0. 0. 0. 0. 0. 0. 0. 0. 0. 0. 0. 0. 0. 0. 0. 0. 0. 0. 0. 0. 0.
 0. 0. 0. 0. 0. 0. 0. 0. 0. 0. 0. 0. 0. 0. 0. 0. 0. 0. 0. 0. 0. 0. 0. 0.
 0. 0. 0. 0. 0. 0. 0. 0.]
[[[[ 7.82356039e-03 -1.10240653e-02 -1.66750327e-02 ...  9.05904919e-04
    -7.45287538e-03  5.64032234e-03]
   [ 1.52977072e-02  6.97475672e-03  2.01414973e-02 ... -2.09527574e-02
    -2.24355441e-02  5.45088015e-03]
   [-5.07298857e-04 -1.37758851e-02  5.92222437e-03 ...  5.64979389e-03
     1.90535448e-02  1.43790804e-02]
   ...
   [-2.52269581e-03 -2.25868803e-02 -2.31339578e-02 ...  1.82483345e-02
    -1.48112206e-02  2.13948637e-03]
   [-1.06943035e-02  9.80876386e-04  6.97147474e-03 ...  1.73053928e-02
    -8.13502260e-03 -1.89830828e-02]
   [ 1.87065005e-02 -2.04398744e-02  1.22527480e-02 ... -2.38534622e-02
    -1.16390754e-02 -1.02939690e-02]]

  [[ 1.80478580e-03  2.08086856e-02  9.42664221e-03 ...  1.54030919e-02
     2.02264823e-02  2.04546005e-02]
   [-1.63648054e-02  1.42293386e-02 -7.40893558e-03 ... -4.81068343e-03
    -2.35354789e-02 -7.01229833e-03]
   [-1.31820077e-02 -7.99210556e-03  1.00358576e-03 ... -8.69674236e-03
    -1.62242353e-03  1.41924433e-03]
   ...
   [-1.00859907e-02  2.44239978e-02 -5.94821945e-03 ... -1.75515618e-02
     2.16456950e-02 -6.51950389e-03]
   [ 1.66184679e-02 -1.71623155e-02  1.56120248e-02 ... -1.10984277e-02
    -2.08985060e-02 -2.20909379e-02]
   [ 1.95247084e-02 -6.28822483e-03  1.30314641e-02 ...  2.47791819e-02
    -1.65519230e-02  2.47855522e-02]]

  [[-3.81873362e-03 -1.84440054e-02 -1.71832070e-02 ...  4.14174423e-03
     1.66444220e-02  7.07312673e-03]
   [ 2.30846815e-02 -2.20321193e-02  5.52698225e-03 ...  1.50848217e-02
     1.43450201e-02 -8.73542577e-03]
   [ 4.18628007e-03 -1.85949095e-02  2.17191577e-02 ... -1.76651385e-02
    -6.68201409e-03  4.43485193e-03]
   ...
   [-8.53810087e-03  8.06575641e-03 -2.46838741e-02 ... -2.22155191e-02
    -1.58472732e-02  2.15330161e-03]
   [-8.46227072e-03  2.52027549e-02  1.62423998e-02 ... -1.40439738e-02
     3.21632810e-03 -2.24360265e-03]
   [ 2.23043114e-02 -1.12409005e-02 -6.37552142e-03 ...  6.01522624e-05
     1.10268705e-02 -4.76441905e-03]]]


 [[[-6.23868778e-04 -1.89801510e-02  1.83247775e-02 ...  1.10479109e-02
    -1.34976022e-03 -6.39646687e-03]
   [-1.05511127e-02  1.87201723e-02 -2.50926241e-04 ... -2.51073856e-02
    -1.00839036e-02  1.71633586e-02]
   [-1.79782007e-02 -1.00037428e-02  1.75888352e-02 ...  1.05102360e-03
    -2.02986859e-02  1.30422600e-03]
   ...
   [-1.59280915e-02  2.15833373e-02  2.54327543e-02 ...  1.05053224e-02
     2.20366679e-02  9.05059278e-03]
   [-3.18262726e-03  2.24962011e-02 -4.67563234e-03 ... -1.58432871e-03
    -2.36930493e-02 -4.39522602e-03]
   [ 1.96640752e-03 -1.47521123e-03  2.31278874e-02 ...  3.01373377e-03
     6.67760894e-03  1.73105337e-02]]

  [[ 4.65512462e-03  7.09783286e-03  1.05791278e-02 ... -2.45469548e-02
     1.87684931e-02 -1.88110508e-02]
   [-7.92434253e-03  1.56552754e-02 -1.45930890e-02 ...  8.15029070e-03
    -1.25561468e-03  1.36890039e-02]
   [-2.48486102e-02 -1.79475956e-02  1.22571401e-02 ...  4.02926840e-03
    -8.88524204e-03  1.01834051e-02]
   ...
   [-2.34557688e-02  8.25754181e-03  1.73369534e-02 ... -2.26594787e-02
     2.27686465e-02 -6.17960095e-03]
   [-6.99850172e-03 -1.06387986e-02 -2.43102014e-03 ...  1.60170384e-02
    -1.87425651e-02  1.95695572e-02]
   [-3.89933400e-03  2.11552195e-02  3.68604437e-04 ...  2.34239474e-02
    -1.39357075e-02 -1.37046613e-02]]

  [[-9.44942236e-04  1.63621344e-02  1.88139416e-02 ...  2.51013637e-02
    -2.44532153e-03  1.05082989e-02]
   [ 2.21286565e-02 -6.34325668e-04 -2.07934156e-02 ... -2.31632181e-02
    -9.21106711e-03 -1.56670660e-02]
   [-2.26611886e-02  1.81847326e-02 -2.44909339e-02 ...  1.38304755e-02
     6.22507930e-03  7.86092132e-05]
   ...
   [ 2.05709524e-02  1.26563907e-02 -2.14454979e-02 ... -1.23891737e-02
     5.16207702e-03 -1.84753165e-02]
   [-2.44361032e-02  2.17411630e-02 -4.46658954e-03 ...  2.41437927e-02
     2.34980732e-02  1.03365630e-03]
   [-9.34911706e-03  1.27328299e-02  2.44848356e-02 ...  1.47288851e-03
     8.17822665e-03 -2.16346011e-02]]]


 [[[ 7.03382865e-03  8.20484012e-03  1.43644512e-02 ...  3.89242917e-03
     3.08256596e-04  1.72150582e-02]
   [ 1.80938393e-02 -9.63406265e-03  1.85651071e-02 ... -1.48270614e-02
     1.37711763e-02 -9.79624689e-04]
   [ 2.52020992e-02 -6.15863129e-03  7.48044625e-03 ... -7.30280951e-03
     9.25278291e-03  2.36303546e-02]
   ...
   [ 7.92942941e-04 -1.73936971e-02 -1.46757746e-02 ...  2.38649957e-02
    -5.45375049e-04  3.93554755e-03]
   [ 1.29883736e-02  1.11587755e-02 -2.99169309e-03 ... -7.32602365e-03
     1.57539994e-02 -9.52491537e-04]
   [-1.16651673e-02 -6.97804987e-03 -2.27382034e-02 ...  2.18415856e-02
    -7.75866769e-03 -4.54603136e-03]]

  [[-1.60808880e-02 -2.41987184e-02  2.22668014e-02 ...  1.32339410e-02
     2.05252320e-04  4.76402417e-03]
   [ 2.26696506e-02  5.84009290e-03 -9.07584094e-03 ...  9.08619910e-03
    -8.95043090e-03  1.22426450e-02]
   [ 1.89549774e-02 -1.09103359e-02 -1.60503313e-02 ... -2.12994367e-02
    -1.21311536e-02  2.15860195e-02]
   ...
   [-2.45835893e-02  1.83671340e-02 -2.47861594e-02 ...  6.27620518e-03
     1.51617341e-02  2.33450755e-02]
   [ 2.47104093e-02  2.08978541e-02 -8.21509771e-03 ... -3.58027779e-03
    -3.54661979e-03 -9.29393433e-03]
   [ 1.36953518e-02 -1.27536049e-02  1.15689784e-02 ...  2.33315714e-02
    -1.85430907e-02  2.31813639e-03]]

  [[-8.17907229e-03  1.91543959e-02 -9.63022374e-03 ... -1.16875358e-02
     1.05790421e-03  2.85245664e-03]
   [-5.27454726e-03  1.91941559e-02  1.60749853e-02 ... -2.21576616e-02
    -2.37671826e-02 -4.16961685e-03]
   [-2.37029288e-02  6.91384450e-03  1.03562251e-02 ... -3.98179330e-03
    -1.42114488e-02  1.85038596e-02]
   ...
   [-1.61018930e-02 -8.35641474e-03  2.47174725e-02 ... -1.97974965e-03
    -6.98677823e-03  4.60073352e-03]
   [-1.44811189e-02  4.83257696e-03 -7.71075487e-03 ...  1.92151032e-02
     2.07515992e-02 -8.24073888e-03]
   [-3.48655879e-03  1.57321356e-02 -2.06349082e-02 ...  1.28880292e-02
     9.84399393e-03 -1.26010943e-02]]]]
[0. 0. 0. 0. 0. 0. 0. 0. 0. 0. 0. 0. 0. 0. 0. 0. 0. 0. 0. 0. 0. 0. 0. 0.
 0. 0. 0. 0. 0. 0. 0. 0. 0. 0. 0. 0. 0. 0. 0. 0. 0. 0. 0. 0. 0. 0. 0. 0.
 0. 0. 0. 0. 0. 0. 0. 0. 0. 0. 0. 0. 0. 0. 0. 0. 0. 0. 0. 0. 0. 0. 0. 0.
 0. 0. 0. 0. 0. 0. 0. 0. 0. 0. 0. 0. 0. 0. 0. 0. 0. 0. 0. 0. 0. 0. 0. 0.
 0. 0. 0. 0. 0. 0. 0. 0. 0. 0. 0. 0. 0. 0. 0. 0. 0. 0. 0. 0. 0. 0. 0. 0.
 0. 0. 0. 0. 0. 0. 0. 0. 0. 0. 0. 0. 0. 0. 0. 0. 0. 0. 0. 0. 0. 0. 0. 0.
 0. 0. 0. 0. 0. 0. 0. 0. 0. 0. 0. 0. 0. 0. 0. 0. 0. 0. 0. 0. 0. 0. 0. 0.
 0. 0. 0. 0. 0. 0. 0. 0. 0. 0. 0. 0. 0. 0. 0. 0. 0. 0. 0. 0. 0. 0. 0. 0.
 0. 0. 0. 0. 0. 0. 0. 0. 0. 0. 0. 0. 0. 0. 0. 0. 0. 0. 0. 0. 0. 0. 0. 0.
 0. 0. 0. 0. 0. 0. 0. 0. 0. 0. 0. 0. 0. 0. 0. 0. 0. 0. 0. 0. 0. 0. 0. 0.
 0. 0. 0. 0. 0. 0. 0. 0. 0. 0. 0. 0. 0. 0. 0. 0. 0. 0. 0. 0. 0. 0. 0. 0.
 0. 0. 0. 0. 0. 0. 0. 0. 0. 0. 0. 0. 0. 0. 0. 0. 0. 0. 0. 0. 0. 0. 0. 0.
 0. 0. 0. 0. 0. 0. 0. 0. 0. 0. 0. 0. 0. 0. 0. 0. 0. 0. 0. 0. 0. 0. 0. 0.
 0. 0. 0. 0. 0. 0. 0. 0. 0. 0. 0. 0. 0. 0. 0. 0. 0. 0. 0. 0. 0. 0. 0. 0.
 0. 0. 0. 0. 0. 0. 0. 0. 0. 0. 0. 0. 0. 0. 0. 0. 0. 0. 0. 0. 0. 0. 0. 0.
 0. 0. 0. 0. 0. 0. 0. 0. 0. 0. 0. 0. 0. 0. 0. 0. 0. 0. 0. 0. 0. 0. 0. 0.
 0. 0. 0. 0. 0. 0. 0. 0. 0. 0. 0. 0. 0. 0. 0. 0. 0. 0. 0. 0. 0. 0. 0. 0.
 0. 0. 0. 0. 0. 0. 0. 0. 0. 0. 0. 0. 0. 0. 0. 0. 0. 0. 0. 0. 0. 0. 0. 0.
 0. 0. 0. 0. 0. 0. 0. 0. 0. 0. 0. 0. 0. 0. 0. 0. 0. 0. 0. 0. 0. 0. 0. 0.
 0. 0. 0. 0. 0. 0. 0. 0. 0. 0. 0. 0. 0. 0. 0. 0. 0. 0. 0. 0. 0. 0. 0. 0.
 0. 0. 0. 0. 0. 0. 0. 0. 0. 0. 0. 0. 0. 0. 0. 0. 0. 0. 0. 0. 0. 0. 0. 0.
 0. 0. 0. 0. 0. 0. 0. 0.]
[[[[-1.94544829e-02  1.51131824e-02  2.39952169e-02 ... -2.09039375e-02
    -2.14024838e-02 -1.87481008e-03]
   [-1.32035492e-02 -7.60853291e-04  6.42798468e-03 ...  1.95578411e-02
    -2.47296561e-02 -1.86932273e-02]
   [-1.70021728e-02  1.50651895e-02 -2.25036293e-02 ...  9.85093415e-03
     4.09665890e-03  5.24289533e-03]
   ...
   [-1.53211718e-02  7.16506317e-03 -1.43625475e-02 ... -2.43272260e-03
     1.61266476e-02 -1.95401311e-02]
   [ 8.17680731e-03  1.14507712e-02  1.07578374e-02 ...  3.22446786e-03
    -1.79127567e-02  1.74197517e-02]
   [-2.40211189e-03  2.55078040e-02  2.31923014e-02 ...  6.18429855e-03
    -1.06431236e-02 -1.79194529e-02]]

  [[ 1.94728784e-02  7.94275850e-03  1.28287822e-02 ...  2.53407881e-02
     1.13640353e-02  1.34434178e-02]
   [ 2.01032758e-02 -1.96302868e-02 -2.51932275e-02 ... -1.44722247e-02
     1.35310888e-02 -2.22184453e-02]
   [-1.28372209e-02  8.08486342e-03 -1.84599496e-02 ...  1.62008777e-03
     1.88038424e-02 -2.70563550e-03]
   ...
   [ 1.85517035e-02  1.54354312e-02 -2.45262682e-03 ... -2.49878317e-03
    -2.21000146e-02 -2.73173861e-03]
   [ 9.25241038e-03 -1.10422540e-02 -1.48857841e-02 ...  2.87262909e-03
     1.65807158e-02 -1.85091887e-02]
   [-2.15676036e-02  5.91545925e-03 -4.92424704e-03 ...  6.59349561e-03
     1.67530403e-02 -2.48962250e-02]]

  [[-2.08359212e-02  2.44267471e-03 -1.99361220e-02 ...  4.96827997e-03
    -8.03917833e-03 -2.49339826e-03]
   [-7.56962784e-03  1.03341006e-02  4.66962159e-03 ...  3.20047513e-03
    -1.05361724e-02 -1.70016252e-02]
   [ 2.35018358e-02 -5.04165888e-04 -2.60739401e-03 ...  1.39376558e-02
     2.12604254e-02  2.09038965e-02]
   ...
   [ 1.33008696e-02  8.13833624e-03 -7.71190971e-05 ... -1.78261343e-02
     2.10977122e-02 -8.99644010e-03]
   [-7.00928830e-03  1.11171603e-02  5.59333898e-03 ... -2.20786501e-02
    -1.18792960e-02 -1.77735016e-02]
   [-1.75054856e-02 -3.32864001e-03 -2.22347062e-02 ... -8.38943571e-03
     2.39336714e-02 -1.06163146e-02]]]


 [[[ 6.24926761e-03  2.58453935e-03 -9.40604508e-03 ...  1.97588652e-03
    -1.70889571e-02  2.47490518e-02]
   [-3.49880382e-03  2.54243836e-02 -1.30248321e-02 ...  1.68572776e-02
    -1.30269183e-02  2.32981183e-02]
   [-9.47685540e-03  2.03369744e-02 -2.00633630e-02 ... -1.61157139e-02
    -2.90995091e-03 -2.09878273e-02]
   ...
   [-2.38435101e-02  7.02802464e-03  1.49114132e-02 ...  1.27123594e-02
    -6.81722909e-03 -4.72529791e-03]
   [ 1.99759752e-03 -1.88270379e-02  9.40257683e-03 ... -5.36001287e-03
     1.77915134e-02 -2.09194329e-02]
   [ 1.90341361e-02 -1.57321878e-02  1.40895993e-02 ...  2.44603939e-02
     6.72360137e-03  5.73206507e-03]]

  [[-1.20718777e-02 -2.15137489e-02 -1.02902399e-02 ... -1.10618910e-02
     2.18599029e-02 -1.63726825e-02]
   [-1.65781304e-02 -1.49921458e-02 -1.67266615e-02 ...  1.59599520e-02
     1.70593672e-02  1.54773071e-02]
   [ 7.41590187e-03  3.07864323e-03  2.49576010e-02 ...  2.30511278e-03
    -1.50222527e-02 -4.99701686e-03]
   ...
   [ 2.26514004e-02 -2.09681913e-02  1.99503042e-02 ... -1.82942376e-02
     1.17533840e-02 -6.69323280e-03]
   [ 1.05972476e-02  9.26707685e-03 -1.26727382e-02 ...  2.09011324e-02
     1.38330199e-02  1.45533755e-02]
   [ 7.68193975e-03  8.12245533e-03  2.47694254e-02 ...  1.53414533e-02
     1.63310245e-02 -1.36933643e-02]]

  [[ 1.46998093e-03 -2.50983648e-02  5.80915436e-03 ...  1.67192332e-02
     2.19946392e-02 -2.24725790e-02]
   [ 3.02501768e-03  2.07922794e-02  2.39803120e-02 ... -1.63502544e-02
    -1.90588515e-02  1.56570487e-02]
   [-2.44825259e-02 -2.28774156e-02 -5.32755069e-03 ...  2.27885135e-02
     1.68569423e-02  2.51599140e-02]
   ...
   [ 2.40896381e-02 -2.27953196e-02 -1.78929176e-02 ...  6.09156117e-03
    -9.67668928e-03 -1.42104570e-02]
   [-2.13180706e-02 -1.55514106e-03 -1.68070178e-02 ... -2.28259135e-02
     6.00389019e-03  1.92919001e-03]
   [ 2.40109861e-02  7.36901537e-03  1.02813095e-02 ...  3.37495841e-03
     2.45695934e-03  1.47660933e-02]]]


 [[[ 1.43781379e-02  1.47157051e-02  1.02608390e-02 ... -2.96093710e-03
     2.29250602e-02 -1.48075344e-02]
   [-1.37671251e-02 -1.33255683e-03  1.48618892e-02 ... -1.85738057e-02
     1.40516460e-02 -2.34431941e-02]
   [ 2.81045772e-03 -1.72067024e-02 -1.10920407e-02 ...  2.45013237e-02
    -1.63053274e-02  1.10338219e-02]
   ...
   [-1.43163325e-02  1.27525814e-03 -1.43735949e-02 ... -1.90344453e-03
    -1.88179854e-02 -2.51161829e-02]
   [-2.18813177e-02  1.41516179e-02 -2.20329277e-02 ... -7.24294409e-03
     1.25396214e-02  1.01623610e-02]
   [-1.60643589e-02  2.19284333e-02  7.88988546e-03 ...  3.82686220e-03
     1.79124624e-02 -2.48705242e-02]]

  [[-1.48805464e-02  8.86550918e-03  5.93731925e-03 ... -8.47804546e-03
     1.56083368e-02  9.41024348e-03]
   [-2.31797658e-02  1.55173726e-02  1.02546811e-02 ... -1.04523376e-02
     9.48305055e-03  2.17768922e-03]
   [ 1.98545307e-02  1.59654059e-02  1.18771233e-02 ...  1.43867210e-02
     9.48525593e-03  1.09825097e-02]
   ...
   [ 4.91994619e-03 -2.23321207e-02  7.11371377e-03 ... -2.56185420e-03
     1.30905695e-02  2.47126296e-02]
   [ 1.29302405e-02 -1.62320714e-02  9.29445401e-03 ...  6.76499680e-03
    -1.56384148e-03  1.87091976e-02]
   [-1.26832910e-03  1.62568502e-03  2.18783170e-02 ... -1.43866241e-03
     6.34789839e-03 -7.14719109e-03]]

  [[-1.39170075e-02 -1.46471458e-02 -2.34374683e-02 ... -1.08080506e-02
     2.54779682e-03 -7.83362798e-03]
   [ 2.14656293e-02 -2.24199090e-02  7.62320310e-03 ... -5.80755994e-03
    -1.14944130e-02  2.16111802e-02]
   [ 1.67934410e-02  2.50186101e-02 -1.63586922e-02 ...  2.44467705e-03
    -2.89172493e-03 -1.52921779e-02]
   ...
   [-1.13085778e-02  1.69502757e-02  2.11962089e-02 ...  2.31102146e-02
     1.53371952e-02  1.01889633e-02]
   [-1.37750152e-02 -2.99674831e-03 -9.56419483e-03 ... -1.63516216e-03
    -5.44923730e-03 -1.44062871e-02]
   [-8.70377570e-03  2.32885182e-02 -5.78723475e-03 ...  2.38852240e-02
     9.82178375e-04 -2.33885646e-02]]]]
[0. 0. 0. 0. 0. 0. 0. 0. 0. 0. 0. 0. 0. 0. 0. 0. 0. 0. 0. 0. 0. 0. 0. 0.
 0. 0. 0. 0. 0. 0. 0. 0. 0. 0. 0. 0. 0. 0. 0. 0. 0. 0. 0. 0. 0. 0. 0. 0.
 0. 0. 0. 0. 0. 0. 0. 0. 0. 0. 0. 0. 0. 0. 0. 0. 0. 0. 0. 0. 0. 0. 0. 0.
 0. 0. 0. 0. 0. 0. 0. 0. 0. 0. 0. 0. 0. 0. 0. 0. 0. 0. 0. 0. 0. 0. 0. 0.
 0. 0. 0. 0. 0. 0. 0. 0. 0. 0. 0. 0. 0. 0. 0. 0. 0. 0. 0. 0. 0. 0. 0. 0.
 0. 0. 0. 0. 0. 0. 0. 0. 0. 0. 0. 0. 0. 0. 0. 0. 0. 0. 0. 0. 0. 0. 0. 0.
 0. 0. 0. 0. 0. 0. 0. 0. 0. 0. 0. 0. 0. 0. 0. 0. 0. 0. 0. 0. 0. 0. 0. 0.
 0. 0. 0. 0. 0. 0. 0. 0. 0. 0. 0. 0. 0. 0. 0. 0. 0. 0. 0. 0. 0. 0. 0. 0.
 0. 0. 0. 0. 0. 0. 0. 0. 0. 0. 0. 0. 0. 0. 0. 0. 0. 0. 0. 0. 0. 0. 0. 0.
 0. 0. 0. 0. 0. 0. 0. 0. 0. 0. 0. 0. 0. 0. 0. 0. 0. 0. 0. 0. 0. 0. 0. 0.
 0. 0. 0. 0. 0. 0. 0. 0. 0. 0. 0. 0. 0. 0. 0. 0. 0. 0. 0. 0. 0. 0. 0. 0.
 0. 0. 0. 0. 0. 0. 0. 0. 0. 0. 0. 0. 0. 0. 0. 0. 0. 0. 0. 0. 0. 0. 0. 0.
 0. 0. 0. 0. 0. 0. 0. 0. 0. 0. 0. 0. 0. 0. 0. 0. 0. 0. 0. 0. 0. 0. 0. 0.
 0. 0. 0. 0. 0. 0. 0. 0. 0. 0. 0. 0. 0. 0. 0. 0. 0. 0. 0. 0. 0. 0. 0. 0.
 0. 0. 0. 0. 0. 0. 0. 0. 0. 0. 0. 0. 0. 0. 0. 0. 0. 0. 0. 0. 0. 0. 0. 0.
 0. 0. 0. 0. 0. 0. 0. 0. 0. 0. 0. 0. 0. 0. 0. 0. 0. 0. 0. 0. 0. 0. 0. 0.
 0. 0. 0. 0. 0. 0. 0. 0. 0. 0. 0. 0. 0. 0. 0. 0. 0. 0. 0. 0. 0. 0. 0. 0.
 0. 0. 0. 0. 0. 0. 0. 0. 0. 0. 0. 0. 0. 0. 0. 0. 0. 0. 0. 0. 0. 0. 0. 0.
 0. 0. 0. 0. 0. 0. 0. 0. 0. 0. 0. 0. 0. 0. 0. 0. 0. 0. 0. 0. 0. 0. 0. 0.
 0. 0. 0. 0. 0. 0. 0. 0. 0. 0. 0. 0. 0. 0. 0. 0. 0. 0. 0. 0. 0. 0. 0. 0.
 0. 0. 0. 0. 0. 0. 0. 0. 0. 0. 0. 0. 0. 0. 0. 0. 0. 0. 0. 0. 0. 0. 0. 0.
 0. 0. 0. 0. 0. 0. 0. 0.]
